tree
version=v4
num_class=1
num_tree_per_iteration=1
label_index=0
max_feature_idx=32
objective=binary sigmoid:1
feature_names=total_points avg_dev std_dev band_1_points band_2_points band_3_points band_4_points band_5_points band_6_points band_7_points band_8_points band_9_points band_10_points dev_1 dev_2 dev_3 dev_4 dev_5 dev_6 dev_7 dev_8 dev_9 dev_10 dev_11 dev_12 dev_13 dev_14 dev_15 dev_16 dev_17 dev_18 dev_19 dev_20
feature_infos=[10:1395] [0.0060010000000000003:102697000] [0.0025047099999999998:108946000] [1:47] [0:52] [0:70] [0:93] [0:112] [0:131] [0:149] [0:167] [0:188] [1:400] [0.00061289500000000002:114213000] [0.0015954999999999999:115201000] [0.00054995200000000004:199545000] [0.000178178:137588000] [9.9817900000000005e-05:138060000] [0.00183392:288097000] [0.00075705800000000001:238570000] [0.00032218299999999997:226481000] [0.0014007900000000001:201727000] [0:239349000] [0:209757000] [0:152444000] [0:234842000] [0:173319000] [0:221301000] [0:278587000] [0:285946000] [0:389513000] [0:362671000] [0:186934000]
tree_sizes=3156 3379 3366 3373 3378 3362 3373 3365 3359 3369 3371 3373 3365 3375 3374 3378 3379 3367 3382 3397 3382 3390 3359 3395 3377 3380 3386 3392 3372 3379 3404 3392 3376 3374 3384 3389 3382 3371 3377 3390 3383 3379 3381 3377 3391 3398 3408 3403 3405 3392 3388 3408 3403 3408 3403 3407 3417 3419 3443 3421 3430 3434 3434 3449 3444 3427 3441 3436 3438 3450 3443 3457 3462 3455 3488 3465 3467 3471 3465 3472 3463 3456 3484 3466 3493 3482 3480 3476 3496 3519 3505 3517 3506 3516 3493 3531 3496 3511 3523 3515

Tree=0
num_leaves=29
num_cat=0
split_feature=1 1 12 12 14 21 1 2 11 11 1 16 13 9 1 20 20 20 14 11 11 23 9 19 0 0 1 13
split_gain=5997.94 109.915 54.9517 15.6287 6.96623 9.03937 5.54353 4.04153 1.32954 0.587301 3.45172 5.16888 0.329351 1.7474 0.304617 0.442398 0.177385 0.174451 0.111235 0.0966602 0.594404 0.0409624 0.224378 0.529404 4.54747e-13 4.54747e-13 5.68434e-14 5.68434e-14
threshold=478.25850000000008 0.8570230000000002 4.5000000000000009 1.5000000000000002 0.28104950000000006 0.12745150000000002 151.07950000000002 46359450.000000007 4.5000000000000009 2.5000000000000004 65.542200000000022 67.840450000000018 44666100.000000007 2.5000000000000004 12594550.000000002 5799645.0000000009 1.6946450000000002 0.55900900000000009 0.20486550000000001 1.5000000000000002 1.0000000180025095e-35 4.9865550000000001 2.5000000000000004 88.846700000000013 604.00000000000011 431.50000000000006 50.484500000000004 27.151550000000004
decision_type=2 2 2 2 2 2 2 2 2 2 2 2 2 2 2 2 2 2 2 2 2 2 2 2 2 2 2 2
left_child=1 2 3 18 5 -5 9 12 -4 10 16 -12 14 -14 15 -2 -3 -11 -1 20 -16 22 23 -19 -21 -23 -18 -24
right_child=7 6 8 4 -6 -7 -8 -9 -10 17 11 -13 13 -15 19 -17 26 21 -20 24 -22 25 27 -25 -26 -27 -28 -29
leaf_value=0.12009880455985047 -0.22218735962915986 0.12105224791413752 -0.1906822748788089 -0.068807341765609098 -0.12016892072045759 0.10675059759983344 0.044014024887752981 -0.17689880030053035 -0.26032509380063729 0.12191901459985291 0.0066390453997050569 0.1401211149998762 -0.20693226596056885 -0.26032509380063734 -0.26032509380063734 -0.26032509380063729 0.14012111499987626 0.14012111499987626 0.1401211149998762 -0.26032509380063734 -0.22550368433972312 0.14012111499987626 0.14012111499987626 0.10007649411982489 -0.26032509380063734 0.14012111499987626 0.14012111499987626 0.14012111499987626
leaf_weight=4.994428753852846 5.2441501915454847 5.2441501915454856 5.7435930669307691 5.7435930669307727 4.9944287538528434 5.9933145046234131 6.2430359423160544 5.9933145046234122 5.2441501915454865 5.4938716292381278 5.2441501915454847 6.4927573800086975 7.4916431307792655 33.712394088506699 33.462672650814056 7.2419216930866241 36.459329903125763 9.7391360700130445 6.2430359423160553 700.21891129016876 5.74359306693077 560.37490618228912 5.4938716292381278 4.9944287538528434 6.2430359423160544 5.2441501915454856 33.462672650814056 64.677852362394333
leaf_count=20 21 21 23 23 20 24 25 24 21 22 21 26 30 135 134 29 146 39 25 2804 23 2244 22 20 25 21 134 259
internal_value=-0.0667855 0.129336 -0.0344324 0.0400096 -0.0212527 0.0208393 0.137852 -0.258711 -0.223921 0.13864 0.130915 0.0804802 -0.259324 -0.250617 -0.259797 -0.244307 0.138791 0.139664 0.131222 -0.260057 -0.255224 0.139814 0.137766 0.126547 -0.260325 0.140121 0.140121 0.140121
internal_weight=1593.47 788.121 38.9565 27.9688 16.7313 11.7369 749.164 805.352 10.9877 742.921 86.9031 11.7369 799.358 41.204 758.154 12.4861 75.1662 656.018 11.2375 745.668 39.2063 650.524 84.9053 14.7336 706.462 565.619 69.922 70.1717
internal_count=6381 3156 156 112 67 47 3000 3225 44 2975 348 47 3201 165 3036 50 301 2627 45 2986 157 2605 340 59 2829 2265 280 281
is_linear=0
shrinkage=1


Tree=1
num_leaves=31
num_cat=0
split_feature=1 1 12 12 14 21 1 2 11 5 1 13 9 1 22 12 15 2 20 11 11 21 0 4 11 23 20 9 23 20
split_gain=4908.71 89.257 44.8373 12.7238 5.64855 7.33991 4.57384 3.44371 1.13167 0.516185 4.56791 0.283769 1.49666 0.262711 0.441658 0.194956 1.43996 0.184036 0.0960387 0.0835059 0.511373 0.0283464 0.159382 0.00116948 0.000641263 0.00406389 0.000594594 0.000273955 0.00151441 0.000212114
threshold=478.25850000000008 0.8570230000000002 4.5000000000000009 1.5000000000000002 0.28104950000000006 0.12745150000000002 151.07950000000002 46359450.000000007 4.5000000000000009 1.0000000180025095e-35 65.542200000000022 44666100.000000007 2.5000000000000004 12594550.000000002 5335965.0000000009 2.5000000000000004 84.184900000000013 28.836700000000004 0.22565700000000002 1.5000000000000002 1.0000000180025095e-35 3.2031400000000008 18.500000000000004 1.0000000180025095e-35 2.5000000000000004 14.256650000000002 0.67865150000000007 2.5000000000000004 4.9865550000000001 54.730200000000004
decision_type=2 2 2 2 2 2 2 2 2 2 2 2 2 2 2 2 2 2 2 2 2 2 2 2 2 2 2 2 2 2
left_child=1 2 3 18 5 -5 9 11 -4 10 17 13 -13 14 -2 16 23 -3 -1 20 -15 22 -17 29 25 -23 -26 28 -28 -11
right_child=7 6 8 4 -6 -7 -8 -9 -10 15 -12 12 -14 19 -16 21 -18 -19 -20 -21 -22 24 -24 -25 26 -27 27 -29 -30 -31
leaf_value=0.16843286603383806 -0.17821989677903408 0.16691198416882672 -0.1124400276476185 -0.0018197860107800113 -0.048171035556879842 0.15644659347464451 0.099647554700781973 -0.099799480604018442 -0.17708008510105869 0.18764300308339499 0.095690176653203313 -0.12740114888834508 -0.17708008510105874 -0.17708008510105874 -0.1398505476796271 0.16795572438293815 0.12936647432209322 0.18693878239891104 0.18706609891802251 -0.17708008510105874 -0.14458474317446382 0.18693986198200113 0.18705836652903718 0.1886640413822798 0.1877684746813921 0.18997131764981451 0.18838974931820518 0.18692529212404047 0.18692529212404047 0.18692529212404047
leaf_weight=4.9813660979270953 7.1409501582384092 4.9758471548557273 5.6980481147766096 5.7431996166706103 4.981992542743682 5.9829390048980713 6.2469739466905585 5.9533038139343253 5.1620482206344604 5.2271000146865907 6.2319220751523963 7.4202802777290335 33.184595704078674 32.938783884048462 5.1733276546001434 5.2249127477407482 4.9810173064470282 58.960714042186737 6.2200696766376495 695.40163886547089 5.6775153577327719 28.609651029109955 26.621519297361374 5.7270945012569419 8.9615993648767454 5.2307258397340766 8.4667889177799207 508.99750238656998 42.540846973657608 19.404596865177155
leaf_count=20 29 20 23 23 20 24 25 24 21 21 25 30 135 134 21 21 20 237 25 2829 23 115 107 23 36 21 34 2046 171 78
internal_value=-6.09696e-05 0.177171 0.0292336 0.0963168 0.0410322 0.0789313 0.184856 -0.17557 -0.143165 0.185575 0.177414 -0.176143 -0.168002 -0.176586 -0.162101 0.186429 0.179201 0.18538 0.17878 -0.176829 -0.172302 0.186832 0.183924 0.187377 0.186986 0.187408 0.18696 0.186947 0.187168 0.187078
internal_weight=1578.07 785.178 38.7697 27.9096 16.7081 11.7261 746.409 792.89 10.8601 740.162 70.1685 786.937 40.6049 746.332 12.3143 669.993 35.3398 63.9366 11.2014 734.018 38.6163 634.654 31.8464 30.3588 602.807 33.8404 568.967 560.005 51.0076 24.6317
internal_count=6381 3156 156 112 67 47 3000 3225 44 2975 282 3201 165 3036 50 2693 142 257 45 2986 157 2551 128 122 2423 136 2287 2251 205 99
is_linear=0
shrinkage=0.1


Tree=2
num_leaves=31
num_cat=0
split_feature=1 1 12 12 14 18 1 1 11 20 11 1 16 13 9 20 2 20 0 23 9 14 2 24 2 11 17 11 0 1
split_gain=4089.28 74.6909 37.0004 10.673 4.61275 6.13032 4.01343 3.12224 1.01439 0.523391 0.342442 2.68678 4.31571 0.262562 1.45022 2.94942 0.255699 0.487941 0.0867973 0.0355496 0.197611 0.473568 0.0337963 0.168608 0.00210215 0.00119002 0.00115659 0.000715713 0.000534517 0.00131293
threshold=478.25850000000008 0.8570230000000002 4.5000000000000009 1.5000000000000002 0.28104950000000006 0.11802950000000002 151.07950000000002 51322450.000000007 4.5000000000000009 0.55900900000000009 2.5000000000000004 65.542200000000022 67.840450000000018 39298550.000000007 2.5000000000000004 36104250.000000007 10822200.000000002 3095130.0000000005 11.500000000000002 4.9865550000000001 2.5000000000000004 69.276750000000007 12725850.000000002 5801630.0000000009 38185600.000000007 1.5000000000000002 31129950.000000004 1.0000000180025095e-35 18.500000000000004 65.542200000000022
decision_type=2 2 2 2 2 2 2 2 2 2 2 2 2 2 2 2 2 2 2 2 2 2 2 2 2 2 2 2 2 2
left_child=1 2 3 18 5 -5 9 13 -4 -3 11 -11 -13 16 15 -15 17 -2 -1 20 21 -12 23 27 25 26 -24 -18 29 -21
right_child=7 6 8 4 -6 -7 -8 -9 -10 10 19 12 -14 14 -16 -17 22 -19 -20 28 -22 -23 24 -25 -26 -27 -28 -29 -30 -31
leaf_value=0.17295720920425001 -0.1250221475030785 0.14222472113092785 -0.10267541420183049 0.0095788960630357398 -0.043512460834786611 0.15651066795868304 0.090121907036077281 -0.091844249861873783 -0.16457097213315783 0.1722208037915631 0.17277078411428115 0.052972525767640881 0.17560252563604956 -0.065924479989867266 -0.16462483164097963 -0.16901703546205465 -0.16457097213315774 -0.16569364408447171 0.15517362286682446 0.17228104828835941 0.17216274781987576 0.13489851046120052 -0.16478279459781706 -0.143972110583379 -0.16664824288841962 -0.16457537016346369 -0.16650981906476431 -0.16589076331983241 0.17210447455210826 0.17397499708254177
leaf_weight=5.608897879719736 4.7989166975021345 6.3505343347787848 5.6199146509170514 6.7257151156663912 4.9647438526153556 4.9143990874290466 6.2178626656532279 6.100791171193122 5.0066837668418884 72.317090958356857 9.2631545811891538 5.2221164256334287 6.3711655586957932 4.8329577594995481 51.265767008066177 6.5175482630729675 13.112743198871618 7.6552012413740158 5.3742224872112274 72.083000689744949 68.412290841341019 5.1303496658802024 10.258216708898546 4.7733269929885855 5.0337047576904288 642.7713790088892 6.2344998568296424 5.9840544164180747 474.44922651350498 4.8856588900089255
leaf_count=23 20 26 23 27 20 20 25 25 21 297 38 21 26 20 215 27 55 32 22 296 281 21 43 20 21 2696 26 25 1949 20
internal_value=-9.75867e-05 0.162993 0.0267073 0.087777 0.0371911 0.0716128 0.17012 -0.163099 -0.131837 0.170807 0.17106 0.165056 0.120365 -0.163668 -0.157464 -0.125121 -0.164223 -0.150022 0.164255 0.171854 0.169922 0.159272 -0.16448 -0.160783 -0.164612 -0.164597 -0.165436 -0.164985 0.172144 0.172389
internal_weight=1538.26 768.917 38.2146 27.588 16.6049 11.6401 730.702 769.339 10.6266 724.485 718.134 83.9104 11.5933 763.238 62.6163 11.3505 700.622 12.4541 10.9831 634.224 82.8058 14.3935 688.168 23.8701 664.298 659.264 16.4927 19.0968 551.418 76.9687
internal_count=6381 3156 156 112 67 47 3000 3225 44 2975 2949 344 47 3200 262 47 2938 52 45 2605 340 59 2886 100 2786 2765 69 80 2265 316
is_linear=0
shrinkage=0.1


Tree=3
num_leaves=31
num_cat=0
split_feature=1 1 11 12 23 1 4 2 2 20 11 1 16 11 11 15 8 13 2 17 22 20 23 9 19 13 9 2 2 0
split_gain=3452.28 63.9515 31.139 9.02642 4.68579 3.67861 3.29582 2.96843 1.7821 0.482563 0.320058 2.46337 3.76687 0.260783 0.939146 0.256705 0.551606 0.182525 0.152548 0.103334 0.102669 0.0913113 0.0334596 0.184645 0.465439 0.00670265 0.0313489 0.00101148 0.000396611 0.000317029
threshold=478.25850000000008 0.8570230000000002 2.5000000000000004 1.5000000000000002 0.041149150000000002 151.07950000000002 1.5000000000000002 46359450.000000007 0.26385900000000007 0.55900900000000009 2.5000000000000004 65.542200000000022 67.840450000000018 1.5000000000000002 1.0000000180025095e-35 65812100.000000007 2.5000000000000004 7817100.0000000009 11461750.000000002 93454350.000000015 13707650.000000002 0.22565700000000002 4.9865550000000001 2.5000000000000004 88.846700000000013 44666100.000000007 2.5000000000000004 10822200.000000002 12979350.000000002 18.500000000000004
decision_type=2 2 2 2 2 2 2 2 2 2 2 2 2 2 2 2 2 2 2 2 2 2 2 2 2 2 2 2 2 2
left_child=1 2 3 21 -5 9 -6 13 -4 -3 11 -11 -13 14 17 18 -17 -2 -15 25 -21 -1 23 24 -12 28 -27 -19 -20 -24
right_child=7 5 8 4 6 -7 -8 -9 -10 10 22 12 -14 15 -16 16 -18 27 19 20 -22 -23 29 -25 -26 26 -28 -29 -30 -31
leaf_value=0.14254673598472653 -0.13379562738506842 0.13160974016692822 -0.077816415083369769 -0.046936897035949394 0.0072482531153782951 0.081835614514759777 0.11572611422664601 -0.081951150684106189 -0.16091865356809043 0.16079522203992222 0.1612489646326857 0.047896298810555266 0.16343555545278393 -0.13694762053089815 -0.10981179584889096 -0.11252418499922907 -0.15498240929838836 -0.15617543332671138 -0.15543056132856378 -0.15477217357146347 -0.13359538527531917 0.1611814827781306 0.16092676222259561 0.16074988589594807 0.12274329588846854 -0.16284815941759823 -0.15480591670633298 -0.15484533608803647 -0.15478403383898431 0.16070412473443924
leaf_weight=4.7520470917224902 4.5906481593847266 6.184900924563407 4.7889002412557584 4.9308639466762569 4.8693485110998136 6.1653740704059592 6.5930157005786896 5.7865231335163108 5.5959054976701736 69.834822416305542 9.1859333515167219 5.1992184668779355 6.1709003448486328 4.8642230033874503 6.0704558640718451 4.5959470868110648 9.1553013324737531 7.597583174705508 9.6355729252099973 4.5730315744876844 4.5844893306493759 5.8871662020683289 74.337695866823196 66.060600519180298 4.7688384801149359 5.9192020446062079 26.756536394357681 23.101744920015335 621.05153848230839 458.11658056080341
leaf_count=20 20 26 20 20 20 25 27 24 24 297 39 21 26 21 26 20 40 33 42 20 20 25 316 281 20 25 117 101 2716 1949
internal_value=-0.000120543 0.151989 0.0245873 0.0811296 0.0345776 0.158741 0.0696434 -0.153293 -0.122596 0.159419 0.159667 0.153767 0.110603 -0.153857 -0.146144 -0.154318 -0.140792 -0.152393 -0.154593 -0.154721 -0.144171 0.152858 0.160449 0.158542 0.14809 -0.154866 -0.156263 -0.155175 -0.154794 0.160735
internal_weight=1481.72 743.442 37.4172 27.0324 16.3932 706.025 11.4624 738.283 10.3848 699.859 693.675 81.2049 11.3701 732.496 41.3604 691.136 13.7512 35.29 677.385 672.52 9.15752 10.6392 612.47 80.0154 13.9548 663.363 32.6757 30.6993 630.687 532.454
internal_count=6381 3156 156 112 67 3000 47 3225 44 2975 2949 344 47 3201 180 3021 60 154 2961 2940 40 45 2605 340 59 2900 142 134 2758 2265
is_linear=0
shrinkage=0.1


Tree=4
num_leaves=31
num_cat=0
split_feature=1 1 12 12 14 18 1 2 11 20 11 1 16 13 9 1 22 20 11 11 23 9 27 15 7 13 2 20 2 23
split_gain=2944.27 56.0382 26.6209 7.80368 3.5415 4.99656 3.4775 2.83482 0.824364 0.464953 0.308952 2.32616 3.37068 0.281874 1.46017 0.262778 0.435857 0.0888702 0.0721278 0.473662 0.0328935 0.180047 0.475473 0.000398426 0.000480998 0.000231632 0.000212842 0.000212495 0.000193488 0.00018143
threshold=478.25850000000008 0.8570230000000002 4.5000000000000009 1.5000000000000002 0.28104950000000006 0.11802950000000002 151.07950000000002 46359450.000000007 4.5000000000000009 0.55900900000000009 2.5000000000000004 65.542200000000022 67.840450000000018 44666100.000000007 2.5000000000000004 12594550.000000002 5335965.0000000009 0.22565700000000002 1.5000000000000002 1.0000000180025095e-35 4.9865550000000001 2.5000000000000004 92.205050000000014 65812100.000000007 2.5000000000000004 9730255.0000000019 29.897550000000003 2.5206650000000006 12725850.000000002 16744250.000000002
decision_type=2 2 2 2 2 2 2 2 2 2 2 2 2 2 2 2 2 2 2 2 2 2 2 2 2 2 2 2 2 2
left_child=1 2 3 17 5 -5 9 13 -4 -3 11 27 -13 15 -15 16 -2 -1 19 25 21 22 -12 28 -25 -17 -22 -11 -20 -27
right_child=7 6 8 4 -6 -7 -8 -9 -10 10 20 12 -14 14 -16 18 -18 -19 23 -21 26 -23 -24 24 -26 29 -28 -29 -30 -31
leaf_value=0.13331678143522416 -0.14819506475341793 0.12263938598866797 -0.089866046890798523 0.0072808365816790163 -0.038609639738475282 0.1415355845221917 0.074523035866700962 -0.075090721966945939 -0.14741919295786352 0.15239479740699657 0.11613861479491382 0.043342012572182009 0.15387744136190359 -0.095735974030610127 -0.1470630875670722 -0.14785032365110737 -0.10800051594872997 0.15207440342132661 -0.14745463036750542 -0.11444634073959643 0.15235446450914394 0.15172902809243188 0.15449799985142784 -0.14829337369687506 -0.14690851058692747 -0.14695064693030285 0.15171062666046087 0.15171469721406622 -0.14693319606904226 -0.14766117341679783
leaf_weight=4.5817091464996356 6.3601403534412366 5.9839609712362281 5.4508027881383878 6.7037385702133196 4.9289292842149726 4.7266864627599716 6.0968991369009009 5.6888491064310065 4.5798231363296509 4.9631800204515448 5.4287306219339353 5.1724154353141767 5.9119703322649002 6.8315550982952109 29.374770790338516 4.5964664816856411 4.6850902587175369 5.6289287805557251 7.2020380049943915 5.2026067823171607 5.187453404068946 63.138510465621948 7.9831436574459076 4.8304862976074201 5.2163767218589783 20.219565793871883 503.70809341967106 61.785332441329956 597.81720060110092 4.3705724626779547
leaf_count=20 29 26 23 27 20 20 25 24 21 22 24 21 26 30 135 21 21 25 33 23 23 281 35 22 24 93 2242 275 2750 20
internal_value=-0.000135449 0.143173 0.0226591 0.0750596 0.0322445 0.0627976 0.149704 -0.145395 -0.116144 0.150389 0.15064 0.14472 0.102297 -0.14597 -0.137378 -0.14644 -0.131146 0.143657 -0.146701 -0.142244 0.151426 0.149494 0.138971 -0.14695 -0.147574 -0.147199 0.151717 0.151765 -0.146939 -0.147077
internal_weight=1414.36 711.96 36.6006 26.57 16.3594 11.4304 675.36 702.396 10.0306 669.263 663.279 77.8329 11.0844 696.707 36.2063 660.501 11.0452 10.2106 649.455 34.3892 585.446 76.5504 13.4119 615.066 10.0469 29.1866 508.896 66.7485 605.019 24.5901
internal_count=6381 3156 156 112 67 47 3000 3225 44 2975 2949 344 47 3201 165 3036 50 45 2986 157 2605 340 59 2829 46 134 2265 297 2783 113
is_linear=0
shrinkage=0.1


Tree=5
num_leaves=31
num_cat=0
split_feature=1 1 11 12 23 1 1 4 2 5 1 13 9 1 20 23 12 14 14 11 11 21 15 15 20 11 23 17 9 26
split_gain=2531.79 49.5642 22.7592 6.77229 3.59354 3.36012 2.80132 2.50346 1.50505 0.471998 3.81992 0.28594 1.42575 0.266162 0.440796 0.204457 0.178125 1.38944 0.0907516 0.0785924 0.514213 0.0300127 0.185969 0.0073809 0.00495959 0.00307988 0.0185582 0.00207107 0.00057535 0.000528067
threshold=478.25850000000008 0.8570230000000002 2.5000000000000004 1.5000000000000002 0.041149150000000002 151.07950000000002 51322450.000000007 1.5000000000000002 0.26385900000000007 1.0000000180025095e-35 65.542200000000022 44666100.000000007 2.5000000000000004 12594550.000000002 5799645.0000000009 1.9235250000000002 2.5000000000000004 79.26785000000001 0.20486550000000001 1.5000000000000002 1.0000000180025095e-35 3.2031400000000008 189.63350000000003 56.807900000000011 0.67865150000000007 2.5000000000000004 14.256650000000002 93454350.000000015 2.5000000000000004 48.086900000000007
decision_type=2 2 2 2 2 2 2 2 2 2 2 2 2 2 2 2 2 2 2 2 2 2 2 2 2 2 2 2 2 2
left_child=1 2 3 18 -5 9 11 -6 -4 10 15 13 -13 14 -2 -3 17 23 -1 20 -15 22 28 -11 -23 26 -26 -21 -18 -17
right_child=6 5 8 4 7 -7 -8 -9 -10 16 -12 12 -14 19 -16 29 21 -19 -20 27 -22 24 -24 -25 25 -27 -28 -29 -30 -31
leaf_value=0.1253882491779853 -0.10052718801857026 0.12184752274451459 -0.067901627505594073 -0.04129261852380884 0.0068971324030606702 0.067996431244475672 -0.0693505299836846 0.10240414668666696 -0.14665703968736557 0.14456489265283387 0.05725506198187276 -0.088974923889027571 -0.14067945102407939 -0.14073867257095565 -0.14190860496545524 0.14446731000548438 0.14544597070912091 0.084789604923684439 0.14479800526894884 -0.14052722109329938 -0.10522438637140906 0.14704457579649158 0.12252808915390623 0.14907104633517773 0.14440972856799508 0.14444669288873332 0.1513215193342369 -0.14215747920431535 0.14441005084056832 0.14539845056815856
leaf_weight=4.3878879249095935 4.491877928376196 4.285174384713172 4.619376137852667 4.8780109286308315 4.798014819622038 6.018076464533805 5.7381246089935294 6.4127542227506638 5.111757829785347 21.748876512050636 5.766208514571189 6.6264486014842978 27.326550588011742 27.557413250207901 6.029200091958046 43.46364064514637 8.588821426033979 4.4368236511945716 5.3409854769706726 573.17924556136131 4.7848602235317221 7.8225118666887274 4.4850199073553076 4.3643691986799231 24.489634603261951 479.49864952266216 4.6170428693294516 7.899988740682601 14.267939761281012 7.0831378549337378
leaf_count=20 21 20 20 20 20 25 25 27 24 102 25 30 133 134 29 204 40 20 25 2793 22 36 21 20 115 2251 21 38 67 33
internal_value=-0.000145209 0.135992 0.0210577 0.0701812 0.030354 0.142367 -0.138919 0.0615288 -0.109272 0.143072 0.134678 -0.139526 -0.130589 -0.140012 -0.124241 0.14282 0.143957 0.136527 0.136044 -0.140282 -0.135485 0.144375 0.141146 0.145318 0.144546 0.144507 0.145506 -0.140549 0.144799 0.144598
internal_weight=1340.12 676.485 35.5488 25.8177 16.0888 640.936 663.634 11.2108 9.73113 634.918 60.5982 657.896 33.953 623.943 10.5211 54.832 574.32 30.5501 9.72887 613.422 32.3423 543.77 27.3418 26.1132 516.428 508.605 29.1067 581.079 22.8568 50.5468
internal_count=6381 3156 156 112 67 3000 3225 47 44 2975 282 3200 163 3037 50 257 2693 142 45 2987 156 2551 128 122 2423 2387 136 2831 107 237
is_linear=0
shrinkage=0.1


Tree=6
num_leaves=31
num_cat=0
split_feature=1 1 12 12 1 2 14 21 11 20 11 1 16 13 9 2 21 0 11 14 23 9 19 17 2 15 13 21 26 14
split_gain=2191.07 44.5614 19.5214 6.01902 3.29619 2.79045 2.74914 4.10203 1.20222 0.506766 0.315709 2.2571 3.26002 0.288214 1.42161 0.276028 0.548681 0.0941006 0.0935278 0.719118 0.0376127 0.203999 0.541577 0.00337802 0.000775752 0.000654609 0.000624832 0.000277019 0.000346601 0.000262921
threshold=478.25850000000008 0.8570230000000002 4.5000000000000009 1.5000000000000002 151.07950000000002 46359450.000000007 0.28104950000000006 0.12745150000000002 3.5000000000000004 0.55900900000000009 2.5000000000000004 65.542200000000022 67.840450000000018 44666100.000000007 2.5000000000000004 10822200.000000002 8501970.0000000019 11.500000000000002 1.5000000000000002 29812150.000000004 4.9865550000000001 2.5000000000000004 88.846700000000013 35624800.000000007 12979350.000000002 6524505.0000000009 14690500.000000002 4.5157750000000005 145.09550000000004 50284050.000000007
decision_type=2 2 2 2 2 2 2 2 2 2 2 2 2 2 2 2 2 2 2 2 2 2 2 2 2 2 2 2 2 2
left_child=1 2 3 17 9 13 7 -5 -4 -3 11 -11 -13 15 -15 16 -2 -1 19 -17 21 22 -12 26 25 -20 -21 28 -22 -16
right_child=5 4 8 6 -6 -7 -8 -9 -10 10 20 12 -14 14 29 18 -18 -19 24 23 27 -23 -24 -25 -26 -27 -28 -29 -30 -31
leaf_value=0.13958326609780264 -0.089668798205480127 0.1067435150170753 -0.065950298895470383 -0.0035462064510107501 0.062119878388429452 -0.062321443886664309 -0.034458287887331525 0.11783555383294719 -0.13788734079242729 0.1385207543538822 0.13957702008798203 0.030480562211398859 0.14214720967922656 -0.082820556110153432 -0.13523074291093817 -0.0920175308565368 -0.13691438450944249 0.11937354111684624 -0.13711323113876023 -0.13664876865028955 0.13863347230550857 0.13849284909146733 0.095133751204252381 -0.138860840738805 -0.13521649088955506 -0.13543124629300082 -0.13536654327779593 0.13845464659468529 0.13961621551842329 -0.13612182404540232
leaf_weight=4.6684654504060763 4.0349754840135557 5.4764335751533499 4.3823712915182096 5.7156518101692217 5.9331856667995444 5.4565862715244284 4.8743980824947348 5.4283430874347687 4.9440826624631882 59.621237576007843 7.919282913208006 5.0599755197763425 5.4093074053525925 6.4180265069007865 22.154339969158176 4.3624218255281475 6.2898221611976624 4.5488569438457489 3.9422663301229459 5.2886585444212022 31.155774146318436 56.391093283891678 4.1939400136470795 4.2112768292427054 538.34320859611034 5.6017294675111771 13.505671113729475 419.24853423237801 4.0560084879398337 3.8931235969066611
leaf_count=23 20 26 19 23 25 24 20 24 25 297 39 21 26 30 115 22 32 22 20 27 155 281 20 21 2795 29 70 2090 20 20
internal_value=-0.000152648 0.129974 0.0195395 0.0652279 0.136288 -0.133519 0.0281813 0.05558 -0.104085 0.137024 0.137303 0.131001 0.0881769 -0.134148 -0.124977 -0.134656 -0.118451 0.12961 -0.134947 -0.129242 0.138148 0.135964 0.12419 -0.136301 -0.135232 -0.136126 -0.135727 0.138477 0.138747 -0.135364
internal_weight=1262.53 639.027 34.5622 25.2357 604.465 623.502 16.0184 11.144 9.32645 598.532 593.055 70.0905 10.4693 618.046 32.4655 585.58 10.3248 9.21732 575.255 27.368 522.965 68.5043 12.1132 23.0056 547.887 9.544 18.7943 454.46 35.2118 26.0475
internal_count=6381 3156 156 112 3000 3225 67 47 44 2975 2949 344 47 3201 165 3036 52 45 2984 140 2605 340 59 118 2844 49 97 2265 175 135
is_linear=0
shrinkage=0.1


Tree=7
num_leaves=31
num_cat=0
split_feature=1 1 11 12 1 21 7 1 7 20 11 1 16 13 9 20 1 22 20 1 25 23 9 14 2 11 17 14 11 13
split_gain=1906.66 40.254 16.7646 5.32729 3.26991 2.88861 3.60983 2.79929 1.41824 0.517115 0.323511 2.24146 3.00239 0.310359 1.57758 3.14571 0.297448 0.484157 0.102625 0.0473954 0.217042 0.0393168 0.210745 0.533098 0.00328599 0.00246325 0.00187744 0.00049289 0.000477373 0.000337945
threshold=478.25850000000008 0.8570230000000002 2.5000000000000004 1.5000000000000002 151.07950000000002 0.12745150000000002 1.5000000000000002 51322450.000000007 1.0000000180025095e-35 0.55900900000000009 2.5000000000000004 65.542200000000022 67.840450000000018 39298550.000000007 2.5000000000000004 36104250.000000007 12594550.000000002 5335965.0000000009 0.22565700000000002 15107400.000000002 14772600.000000002 4.9865550000000001 2.5000000000000004 69.276750000000007 38185600.000000007 1.5000000000000002 34926850.000000007 29812150.000000004 2.5000000000000004 14690500.000000002
decision_type=2 2 2 2 2 2 2 2 2 2 2 2 2 2 2 2 2 2 2 2 2 2 2 2 2 2 2 2 2 2
left_child=1 2 3 18 9 -5 -7 13 -4 -3 11 -11 -13 16 15 -15 17 -2 -1 20 28 22 23 -12 25 26 27 -21 -18 -29
right_child=7 4 8 5 -6 6 -8 -9 -10 10 21 12 -14 14 -16 -17 19 -19 -20 24 -22 -23 -24 -25 -26 -27 -28 29 -30 -31
leaf_value=0.11218447517053286 -0.13248823150228636 0.10069824725383916 -0.1347738102587096 -0.027134845395124941 0.056792789618937668 -0.00011146893374197225 0.12254317773194273 -0.057794725984004841 -0.055041080520698164 0.13353807926080727 0.13489589040710537 0.027603408131342912 0.13657326575135351 -0.019538122686368925 -0.13084106658325997 -0.13641427274862367 -0.13212239960432301 -0.086729631099867532 0.1339994956433902 -0.13237744837177062 -0.1037455727925095 0.1335016747628639 0.13351472654568 0.090078331122920352 -0.13371489261624434 -0.13075636935841331 -0.13372785113515809 -0.13187753313904652 -0.13079959193003521 -0.13086606921417018
leaf_weight=3.9619341194629687 5.3531816303729993 5.2372329682111731 4.8977272212505323 6.1265006810426703 5.8454517275094977 4.8354175835847837 4.7630717903375626 5.4757515788078299 4.0970890820026398 55.855020061135292 7.278179392218588 5.0302685052156431 5.0838121026754379 4.1070669144391996 38.714266985654831 5.2421727925539017 3.671059504151347 4.0705231726169586 4.732146143913269 4.0582350790500703 3.6260597705841056 425.73582887649536 52.827589839696884 4.1773768812417984 3.9168499857187262 473.64936535060406 4.12698970735073 4.5738516896963146 10.62120185792446 11.891287282109259
leaf_count=20 29 26 26 25 25 21 21 25 18 297 38 21 26 20 215 27 20 21 25 22 20 2265 281 21 21 2633 22 25 59 66
internal_value=-0.000157047 0.124914 0.0182523 0.0612421 0.131199 0.026512 0.0607536 -0.128958 -0.098456 0.131974 0.132269 0.125694 0.0823768 -0.129632 -0.121938 -0.0850713 -0.13033 -0.112723 0.124058 -0.130649 -0.125596 0.133154 0.130848 0.118553 -0.13083 -0.130807 -0.131782 -0.13139 -0.131139 -0.131147
internal_weight=1183.58 600.485 33.4139 24.4191 567.071 15.725 9.59849 583.098 8.99482 561.225 555.988 65.9691 10.1141 577.622 48.0635 9.34924 529.559 9.4237 8.69408 520.135 17.9183 490.019 64.2831 11.4556 502.217 498.3 24.6504 20.5234 14.2923 16.4651
internal_count=6381 3156 156 112 3000 67 42 3225 44 2975 2949 344 47 3200 262 47 2938 50 45 2888 99 2605 340 59 2789 2768 135 113 79 91
is_linear=0
shrinkage=0.1


Tree=8
num_leaves=31
num_cat=0
split_feature=20 1 12 8 23 3 2 11 12 15 20 15 22 13 9 11 24 1 1 20 0 12 1 1 1 15 23 9 19 0
split_gain=1666.41 36.9378 14.4058 4.86373 3.32338 3.24694 2.83704 1.0669 0.980072 0.618477 0.531571 0.421135 0.403506 0.359832 2.04036 0.329497 2.14839 0.379998 0.324154 0.525947 0.120181 0.104495 0.168893 0.0851631 0.0507291 0.229753 0.0427475 0.219782 0.563675 0.0132875
threshold=376.53750000000008 0.8570230000000002 4.5000000000000009 1.5000000000000002 343.30850000000004 3.5000000000000004 46359450.000000007 3.5000000000000004 1.5000000000000002 223.40050000000002 0.55900900000000009 3373.3350000000005 284.47850000000005 44666100.000000007 2.5000000000000004 2.5000000000000004 77.393100000000018 77.248500000000021 12594550.000000002 5799645.0000000009 11.500000000000002 2.5000000000000004 20799550.000000004 141.41600000000003 15107400.000000002 13347400.000000002 4.9865550000000001 2.5000000000000004 88.846700000000013 13.500000000000002
decision_type=2 2 2 2 2 2 2 2 2 2 2 2 2 2 2 2 2 2 2 2 2 2 2 2 2 2 2 2 2 2
left_child=1 2 3 8 10 -5 9 -4 20 -2 -3 -11 15 18 -15 16 17 29 19 -13 -1 22 -20 26 25 -23 27 28 -17 -12
right_child=6 4 7 5 -6 -7 -8 -9 -10 11 12 13 -14 14 -16 23 -18 -19 21 -21 -22 24 -24 -25 -26 -27 -28 -29 -30 -31
leaf_value=0.13037448795221765 -0.086158108526993932 0.095164244678929741 -0.058603188883583603 -0.054959580486648854 0.032672684326802155 0.059468570132879164 -0.051635167088405182 -0.12915676003045934 0.065121668386122697 -0.15448274402013459 0.12934343169089341 -0.078630730286752368 0.096123909273143335 -0.055312241478089053 -0.12716407078945535 0.13046474038185152 0.064900912049298085 0.098254235372388574 -0.098406856544021426 -0.12871669338258218 0.10551949071578988 -0.12746527783292291 -0.12828595369187554 0.14021713943283415 -0.1270379393967446 -0.098192148586593878 0.1293155455585725 0.12932726361290586 0.082709241290921387 0.13571293291869765
leaf_weight=4.1033917516469973 3.9249394685029975 5.000074476003646 4.249799966812132 4.8564176857471448 3.7129791826009741 5.0670723915100098 5.220689356327056 4.3240888565778732 6.1145142465829849 5.1409515142440787 48.581129729747772 3.6998879164457303 3.9593426883220664 4.7945538163185146 22.493339270353317 6.9719036817550641 6.083808720111846 4.1282737553119651 3.3892253488302222 4.8381610065698624 3.6991183161735535 12.835304617881777 4.2818706929683685 6.7934416234493247 469.50352944433689 3.3891017585992804 388.98311606049538 47.866184398531914 3.8290702402591705 3.5119244754314414
leaf_count=23 22 26 19 21 20 22 24 25 26 29 277 20 22 24 134 39 30 20 20 28 20 76 25 35 2803 20 2219 273 20 19
internal_value=-0.000160964 0.120604 0.0169795 0.0569585 0.126949 0.00346903 -0.124997 -0.0941856 0.0950989 -0.125709 0.127614 -0.125999 0.127926 -0.125723 -0.11454 0.12817 0.12135 0.127458 -0.126331 -0.107012 0.118591 -0.126665 -0.115085 0.129105 -0.126848 -0.12135 0.128936 0.12642 0.113535 0.129773
internal_weight=1105.35 561.836 32.4144 23.8405 529.421 9.92349 543.512 8.57389 13.917 538.291 525.708 534.366 520.708 529.225 27.2879 516.749 62.3051 56.2213 501.937 8.53805 7.80251 493.399 7.6711 454.444 485.728 16.2244 447.65 58.6672 10.801 52.0931
internal_count=6381 3156 156 112 3000 43 3225 44 69 3201 2980 3179 2954 3150 158 2932 346 316 2992 48 43 2944 45 2586 2899 96 2551 332 59 296
is_linear=0
shrinkage=0.1


Tree=9
num_leaves=31
num_cat=0
split_feature=1 1 11 12 1 1 31 3 5 5 1 11 11 13 15 16 13 12 15 2 20 21 0 13 0 14 20 9 11 23
split_gain=1462.3 34.0864 12.2198 4.43776 3.3279 2.86732 2.6292 2.20435 1.41305 0.585554 4.04271 0.372649 1.2748 0.346116 1.8278 0.264994 0.251979 0.228451 1.61722 0.198862 0.11867 0.039239 0.229638 0.0102035 0.0132052 0.00903304 0.00550636 0.00496348 0.0046025 0.0266489
threshold=478.25850000000008 0.8570230000000002 2.5000000000000004 1.5000000000000002 151.07950000000002 51322450.000000007 0.084080000000000002 2.5000000000000004 1.0000000180025095e-35 1.0000000180025095e-35 65.542200000000022 1.5000000000000002 1.0000000180025095e-35 49314900.000000007 50970450.000000007 9.0573150000000009 7817100.0000000009 2.5000000000000004 84.184900000000013 11461750.000000002 0.22565700000000002 3.2031400000000008 18.500000000000004 44666100.000000007 27.500000000000004 62.259750000000004 0.67865150000000007 3.5000000000000004 2.5000000000000004 14.256650000000002
decision_type=2 2 2 2 2 2 2 2 2 2 2 2 2 2 2 2 2 2 2 2 2 2 2 2 2 2 2 2 2 2
left_child=1 2 3 20 9 11 7 -5 -4 10 15 12 16 19 27 -3 -2 18 25 -13 -1 22 -19 -21 -25 -11 -23 -15 29 -28
right_child=5 4 8 6 -6 -7 -8 -9 -10 17 -12 13 -14 14 -16 -17 -18 21 -20 23 -22 26 -24 24 -26 -27 28 -29 -30 -31
leaf_value=0.10166341330749395 -0.094318056687580573 0.097059933914956653 -0.12716563973787995 0.033794899685908472 0.046756125242690176 -0.048012961468999193 0.083646474263279633 -0.057883740526744047 -0.04415570875721217 0.12582495337204 0.0295061517771893 -0.10020562550225554 -0.061941133049628387 -0.12835087609071871 -0.044238694894819651 0.12601837900789623 -0.12437624363964171 0.098057852024556649 0.054769994799216383 -0.12382456393482169 0.1265971741444821 0.12888665348622663 0.12615784407122982 -0.13195561637127468 -0.12374431989752846 0.13141687079737005 0.12573524569081593 -0.12398744659387298 0.12580279421676124 0.13496813032012131
leaf_weight=3.540867939591414 3.2143441885709825 3.4413914382457724 4.4326241463422758 6.1376457959413511 5.6372970640659323 5.2243804186582556 4.8043745607137671 4.5795628577470779 3.8161582201719284 16.632970482110984 5.1156894862651816 3.5737915635108939 4.4075083434581748 3.3829931765794781 3.4610280841588965 38.644691646099091 21.073190033435822 3.4855694919824627 3.6886277794837943 440.97861739993095 4.141364648938179 6.2210233360528937 17.55826224386692 3.5679165571928015 4.3417737483978271 3.4959294795989981 18.720207989215854 11.364162638783453 366.90236534178257 3.7527995258569709
leaf_count=20 20 21 27 26 25 25 21 20 17 102 25 21 25 20 20 236 134 21 20 2839 25 36 107 20 28 20 115 73 2251 21
internal_value=-0.000164296 0.116714 0.0157789 0.0529426 0.123149 -0.121712 0.0221761 -0.00538024 -0.0887625 0.124032 0.113447 -0.122483 -0.111419 -0.123157 -0.109639 0.12365 -0.120398 0.125167 0.115641 -0.123701 0.115105 0.125711 0.121504 -0.123888 -0.127448 0.126796 0.125935 -0.124988 0.125888 0.127277
internal_weight=1029.34 524.749 31.4526 23.2038 493.297 504.59 15.5216 10.7172 8.24878 487.66 47.2018 499.365 28.695 470.67 18.2082 42.0861 24.2875 440.458 23.8175 452.462 7.68223 416.64 21.0438 448.888 7.90969 20.1289 395.596 14.7472 389.375 22.473
internal_count=6381 3156 156 112 3000 3225 67 46 44 2975 282 3200 179 3021 113 257 154 2693 142 2908 45 2551 128 2887 48 122 2423 93 2387 136
is_linear=0
shrinkage=0.1


Tree=10
num_leaves=31
num_cat=0
split_feature=20 1 12 12 2 2 14 21 11 5 1 32 26 11 1 7 15 1 2 12 1 4 21 15 24 13 1 2 20 11
split_gain=1286.62 31.7367 10.5046 4.04852 3.12579 2.92851 2.44787 3.09838 1.00036 0.611933 3.9201 0.382654 2.21975 0.845738 0.299704 0.984968 0.83116 0.448704 0.287038 0.204254 1.57782 0.145025 0.041873 0.248801 0.0413749 0.0291546 0.0141775 0.00945464 0.00389388 0.00202812
threshold=376.53750000000008 0.8570230000000002 4.5000000000000009 1.5000000000000002 122.92650000000002 46359450.000000007 0.28104950000000006 0.12745150000000002 3.5000000000000004 1.0000000180025095e-35 65.542200000000022 104.26100000000001 31692950.000000004 3.5000000000000004 16355300.000000002 1.5000000000000002 13641450.000000002 10729200.000000002 28.836700000000004 2.5000000000000004 87.957300000000018 1.5000000000000002 3.2031400000000008 189.63350000000003 151617.50000000003 44666100.000000007 141.41600000000003 36.89820000000001 0.67865150000000007 1.5000000000000002
decision_type=2 2 2 2 2 2 2 2 2 2 2 2 2 2 2 2 2 2 2 2 2 2 2 2 2 2 2 2 2 2
left_child=1 2 3 21 9 11 7 -5 -4 10 18 12 13 14 15 16 17 -2 -3 20 27 -1 23 -21 -13 29 28 -11 -24 -16
right_child=5 4 8 6 -6 -7 -8 -9 -10 19 -12 24 -14 -15 25 -17 -18 -19 -20 22 -22 -23 26 -25 -26 -27 -28 -29 -30 -31
leaf_value=0.12377218327386115 -0.16346413658729797 0.091153499780325165 -0.051178800817114081 -0.0033784690823671112 0.043641571576184056 -0.042557476542448708 -0.038757401465093516 0.10457470636755822 -0.12277858487962932 0.12285298851908266 0.026875758671132767 -0.13289721168109983 -0.032956605839437832 -0.076901947771149101 -0.12228578693784838 -0.068521586382702115 -0.084499719913845972 -0.12170170445881145 0.12295128107261587 0.12317375278137128 0.049988348945105565 0.095147291255637312 0.12540463383454872 0.092835453296804635 -0.12103673127036657 -0.12965940552879587 0.12865209583255649 0.12860572652745156 0.12278746048858494 -0.1210677679617037
leaf_weight=4.024783641099936 3.2771019190549913 3.0821869969367972 4.1009564995765677 5.6886463165283185 5.2980836629867545 4.9989578276872626 4.8231827467679969 4.9915201663970947 3.7226867377758026 16.041461557149894 5.057898834347724 2.9663637727498999 3.2473827898502341 5.052737444639205 18.066984385251999 4.7945020198822013 5.2362800389528266 11.96895872056484 35.961679011583328 16.314814224839214 3.3922971189022055 3.1592241078615189 5.7771870940923682 3.2399665713310233 347.42107157409191 4.4933190345764151 4.2304964512586585 3.475957289338111 355.63133190572262 56.178927093744278
leaf_count=26 19 20 19 23 28 24 20 24 25 106 25 20 21 34 122 31 35 82 237 107 18 19 36 21 2420 26 26 21 2355 391
internal_value=-0.000166583 0.11342 0.0146712 0.0491279 0.120006 -0.118686 0.020372 0.0470749 -0.0852478 0.120901 0.10971 -0.119509 -0.11443 -0.116855 -0.118796 -0.109322 -0.118873 -0.130678 0.120441 0.12211 0.112937 0.111184 0.122656 0.118147 -0.121137 -0.121838 0.122897 0.123878 0.122829 -0.121364
internal_weight=955.717 488.014 30.511 22.6874 457.503 467.703 15.5033 10.6802 7.82364 452.205 44.1018 462.704 112.316 109.069 104.016 25.2768 20.4823 15.2461 39.0439 408.104 22.9097 7.18401 385.194 19.5548 350.387 78.7392 365.639 19.5174 361.409 74.2459
internal_count=6381 3156 156 112 3000 3225 67 47 44 2972 282 3201 761 740 706 167 136 101 257 2690 145 45 2545 128 2440 539 2417 127 2391 513
is_linear=0
shrinkage=0.1


Tree=11
num_leaves=31
num_cat=0
split_feature=1 1 11 14 12 1 31 2 3 26 5 1 11 11 13 9 15 13 1 12 19 1 4 21 21 1 13 2 20 13
split_gain=1135.63 29.3958 9.12575 4.10532 3.6201 2.9635 2.17611 2.00094 1.73463 1.01824 0.657542 3.81544 0.432733 1.38963 0.403899 2.05295 0.306124 0.282311 0.259344 0.26692 2.16657 0.181107 0.150356 0.0447862 0.262545 0.0108497 0.00562753 0.00742222 0.00504073 0.00396994
threshold=478.25850000000008 0.8570230000000002 2.5000000000000004 304.81800000000004 1.5000000000000002 51322450.000000007 0.084080000000000002 0.11751600000000002 2.5000000000000004 298.18700000000007 1.0000000180025095e-35 65.542200000000022 1.5000000000000002 1.0000000180025095e-35 49314900.000000007 2.5000000000000004 39.510000000000012 7817100.0000000009 151.07950000000002 2.5000000000000004 93.861400000000017 12594550.000000002 1.5000000000000002 3.2031400000000008 2.2620800000000005 61.498100000000001 44666100.000000007 21770150.000000004 309.98500000000007 264.61150000000004
decision_type=2 2 2 2 2 2 2 2 2 2 2 2 2 2 2 2 2 2 2 2 2 2 2 2 2 2 2 2 2 2
left_child=1 2 4 9 22 12 8 -4 -6 10 11 16 13 17 21 -16 -3 -2 19 20 25 -14 -1 24 -21 -12 29 -28 -25 -23
right_child=5 3 7 -5 6 -7 -8 -9 -10 -11 18 -13 14 -15 15 -17 -18 -19 -20 23 -22 26 -24 28 -26 -27 27 -29 -30 -31
leaf_value=0.12100761679198163 -0.085180738060791905 0.086292796253540471 -0.022603900506641794 -0.003397956635038557 0.029229519333589915 -0.039609621162122473 0.076246992996374857 -0.1265239943259712 -0.052809399045474853 0.059979317842138273 0.12035576144640946 0.024461358896863461 -0.097847179308720278 -0.050230519207935947 -0.024954068953403963 -0.11902210571959722 0.12033320174696281 -0.11921360393729113 0.14477352210151873 0.12054907344883269 0.028694590471852306 -0.12228278408868146 0.090880140373711046 0.12020462969358564 0.088221742799146144 0.12704426250415915 -0.1252075041455093 -0.11857264069354545 0.12385382020032376 -0.11866429600101668
leaf_weight=3.720667436718947 2.8176255375146928 2.869791403412818 3.2864085435867301 2.809648483991622 6.0383188277482969 4.9947918802499762 4.6658492386341086 4.2475184798240662 4.4965414851903915 3.0152538269758216 14.872918531298643 5.0043484866619101 4.1923337131738654 3.9924221336841574 2.8249352723360053 12.980536103248594 33.260171756148338 18.063301533460617 4.0516497045755377 14.971673369407656 2.9342521429061881 3.0568966120481482 2.9858857393264771 330.49511925876141 3.0188231766223899 2.8978129327297202 3.0984227210283271 3.698800191283226 3.8291559666395178 372.30177499353886
leaf_count=26 20 20 16 17 26 25 21 28 20 20 106 25 29 25 16 97 237 134 19 106 18 21 19 2367 21 18 20 28 26 2810
internal_value=-0.00016596 0.11037 0.0137455 0.117079 0.0463947 -0.11619 0.0193935 -0.0811925 -0.00578674 0.117883 0.1183 0.106295 -0.117086 -0.104286 -0.117878 -0.102209 0.117629 -0.114621 0.11961 0.119336 0.108302 -0.118519 0.107594 0.119985 0.115125 0.121446 -0.118745 -0.121597 0.120246 -0.118694
internal_weight=885.494 453.472 29.4412 424.031 21.9073 432.022 15.2007 7.53393 10.5349 421.221 418.206 41.1343 427.027 24.8733 402.154 15.8055 36.13 20.8809 377.071 373.02 20.705 386.348 6.70655 352.315 17.9905 17.7707 382.156 6.79722 334.324 375.359
internal_count=6381 3156 156 3000 112 3225 67 44 46 2983 2963 282 3200 179 3021 113 257 154 2681 2662 142 2908 45 2520 127 124 2879 48 2393 2831
is_linear=0
shrinkage=0.1


Tree=12
num_leaves=31
num_cat=0
split_feature=20 1 2 12 2 2 2 20 2 5 1 13 9 1 7 14 12 19 11 11 21 16 1 1 20 23 15 13 26 13
split_gain=1003.62 27.6261 8.03934 6.95322 3.59441 3.08582 3.03257 1.27292 2.6399 0.6679 3.7229 0.4613 2.05538 0.477116 1.28458 0.32541 0.247694 2.10324 0.134524 0.724694 0.0479543 0.282358 0.007527 0.00682087 0.00211134 0.000781028 0.000718441 0.000597425 0.000478518 0.00142941
threshold=376.53750000000008 0.8570230000000002 0.26385900000000007 4.5000000000000009 0.01707755 122.92650000000002 46359450.000000007 0.42449250000000005 0.037306800000000008 1.0000000180025095e-35 65.542200000000022 44666100.000000007 2.5000000000000004 12594550.000000002 1.5000000000000002 15.867150000000002 2.5000000000000004 100.53050000000002 1.5000000000000002 1.0000000180025095e-35 3.2031400000000008 47.977050000000006 61.498100000000001 141.41600000000003 0.67865150000000007 274.7580000000001 36813250.000000007 83.392700000000005 196.07400000000004 45.07415000000001
decision_type=2 2 2 2 2 2 2 2 2 2 2 2 2 2 2 2 2 2 2 2 2 2 2 2 2 2 2 2 2 2
left_child=1 2 3 4 -1 9 11 8 -6 10 15 13 -13 14 -2 -3 17 22 19 -15 21 -18 -11 24 -22 28 -14 -27 -26 -30
right_child=6 5 -4 -5 7 -7 -8 -9 -10 16 -12 12 26 18 -16 -17 20 -19 -20 -21 23 -23 -24 -25 25 27 -28 -29 29 -31
leaf_value=-0.019691305711129786 -0.12169898955591958 0.082225761170882317 -0.093749601742444566 -0.084625439117571588 0.12931261818677409 0.036471045786698311 -0.034745537759552074 0.13916056255360065 0.031522827769216048 0.11813812498751475 0.022247113001005347 -0.041637227384509402 -0.11657082942746214 -0.11692156418505398 -0.042203992751506825 0.11810523060333533 0.083026746492489326 0.023819815327958516 -0.1165654927695345 -0.067052513764279051 0.11997347758907262 0.11820013371234572 0.12390118114102984 0.12228673213633923 0.11783986754475956 0.12007231515832265 -0.11838036131763581 0.11804754349729132 0.12049946671417198 0.11797783218060472
leaf_weight=4.064888000488291 5.5266503095626813 2.7553348988294593 5.6764583289623252 3.7848189920186988 4.5730140060186368 4.9842735528945914 4.7980121970176688 3.4957881867885581 6.9653028696775436 14.529453486204153 4.9548984766006461 4.6500787734985378 14.007321402430536 16.565801858901981 3.2153728604316711 30.607123970985413 2.724673897027972 2.6811513751745215 343.97421607375145 3.5360256135463706 4.9567027240991584 14.056994661688803 2.6851159036159506 3.6296909600496283 280.89200921356678 2.855119287967681 2.6016301885247222 2.9763591438531876 2.7000095993280437 13.42730590701103
leaf_count=18 38 21 34 20 25 28 24 23 36 112 25 28 115 134 21 236 20 15 2822 23 36 108 18 26 2187 21 20 23 20 104
internal_value=-0.000167778 0.107724 0.0127761 0.0392004 0.0637388 0.114652 -0.113767 0.0862965 0.0702801 0.11566 0.10313 -0.114729 -0.100402 -0.115546 -0.0924602 0.115142 0.11704 0.106206 -0.116101 -0.108149 0.117697 0.112489 0.119037 0.117977 0.117926 0.117893 -0.116854 0.119039 0.11787 0.1184
internal_weight=818.852 419.976 28.5603 22.8838 19.099 391.416 398.875 15.0341 11.5383 386.432 38.3174 394.077 21.259 372.818 8.74202 33.3625 348.115 19.8957 364.076 20.1018 328.219 16.7817 17.2146 311.437 307.808 302.851 16.609 5.83148 297.019 16.1273
internal_count=6381 3156 156 122 102 3000 3225 84 61 2972 282 3201 163 3038 59 257 2690 145 2979 157 2545 128 130 2417 2391 2355 135 44 2311 124
is_linear=0
shrinkage=0.1


Tree=13
num_leaves=31
num_cat=0
split_feature=1 1 11 14 2 12 4 21 0 26 5 3 1 11 11 15 21 17 12 19 2 17 15 4 1 21 0 13 9 1
split_gain=889.363 25.8406 6.94439 3.78651 3.06742 2.98957 2.14098 1.87891 2.81001 1.08952 0.722017 3.64283 1.00887 0.487665 1.31772 0.469132 1.00511 0.32311 0.24879 1.84155 0.215999 0.199676 0.213845 0.169069 0.109535 0.0522208 0.305206 0.0118768 0.0404952 0.0100788
threshold=478.25850000000008 0.8570230000000002 2.5000000000000004 304.81800000000004 46359450.000000007 1.5000000000000002 1.5000000000000002 0.12745150000000002 17.500000000000004 298.18700000000007 1.0000000180025095e-35 1.5000000000000002 65.542200000000022 1.5000000000000002 1.0000000180025095e-35 65812100.000000007 25303100.000000004 8064380.0000000009 2.5000000000000004 100.53050000000002 12105850.000000002 93454350.000000015 29168600.000000004 1.5000000000000002 151.07950000000002 3.2031400000000008 18.500000000000004 44666100.000000007 2.5000000000000004 73.304400000000015
decision_type=2 2 2 2 2 2 2 2 2 2 2 2 2 2 2 2 2 2 2 2 2 2 2 2 2 2 2 2 2 2
left_child=1 2 5 9 13 23 -4 -7 -9 10 11 12 -3 14 17 20 -17 -2 19 29 -15 27 -23 -1 25 26 -20 -22 -29 -12
right_child=4 3 6 -5 -6 7 -8 8 -10 -11 18 -13 -14 15 -16 16 -18 -19 24 -21 21 22 -24 -25 -26 -27 -28 28 -30 -31
leaf_value=0.11690498090667556 -0.076139180103944645 0.11611992725379119 -0.12431755498007764 -0.0056374762629785337 -0.031788529514859665 -0.026221837289158619 -0.012039359654383287 -0.011027322860848426 0.10145639161823648 0.050145199008048993 0.11612487273332098 -0.0042223215463966738 0.059842368858980588 -0.09011892605342034 -0.045583626077869643 -0.036321544327651743 -0.11562880479504428 -0.11525870555219964 0.078825579743588406 0.029973270760127624 -0.11477663638417167 -0.11483133921799149 -0.071591503090642064 0.082768137892484647 0.1358833070750162 0.11598183888608715 0.11636423205564438 -0.12627208840321588 -0.11479251160365689 0.12310377377308689
leaf_weight=3.1954109072685304 2.4484643042087617 29.026606857776642 3.8658423870801917 2.7026260644197455 4.723933905363082 5.994190275669097 3.0290457531809807 4.3632161617279035 4.5232497751712799 2.7218254953622809 13.605750672519212 3.0569200515747061 3.5780848264694205 3.6357095390558234 3.8846308887004843 2.4358916506171218 4.6460017785429955 15.335432611405848 2.6081233769655219 2.8513761907815924 308.13683176785707 2.3618045449256888 2.2177289128303528 2.657389909029007 2.7061868458986273 283.39835368096828 12.773459389805792 4.0131453126668957 13.116090312600134 2.4405467063188544
leaf_count=26 20 243 28 17 24 25 16 20 22 20 114 21 18 29 26 20 40 134 21 16 2750 21 19 19 14 2393 106 25 117 17
internal_value=-0.000166774 0.10516 0.0119466 0.112285 -0.11185 0.0408579 -0.0749918 0.0170436 0.0462274 0.113173 0.113655 0.100158 0.109944 -0.112894 -0.0983473 -0.113819 -0.0883502 -0.109873 0.115158 0.104027 -0.11436 -0.114627 -0.0938916 0.101406 0.115855 0.115674 0.109999 -0.114919 -0.117482 0.117186
internal_weight=756.054 389.098 27.6283 361.47 366.956 20.7335 6.89489 14.8807 8.88647 358.767 356.045 35.6616 32.6047 362.232 21.6685 340.563 7.08189 17.7839 320.384 18.8977 333.481 329.846 4.57953 5.8528 301.486 298.78 15.3816 325.266 17.1292 16.0463
internal_count=6381 3156 156 3000 3225 112 44 67 42 2983 2963 282 261 3201 180 3021 60 154 2681 147 2961 2932 40 45 2534 2520 127 2892 142 131
is_linear=0
shrinkage=0.1


Tree=14
num_leaves=31
num_cat=0
split_feature=20 1 2 17 12 18 1 26 27 5 1 13 9 20 1 7 23 15 12 13 1 13 1 21 15 1 15 11 23 25
split_gain=788.667 24.4761 6.54697 4.01609 3.89792 3.42597 3.11217 1.1889 1.02442 0.792296 3.69626 0.572675 2.63966 4.29828 0.548637 1.14628 0.382797 0.178714 0.12142 1.22851 0.0804589 0.365853 0.0764039 0.0562227 0.328942 0.0159393 0.00286129 0.00198733 0.00157061 0.00155698
threshold=376.53750000000008 0.8570230000000002 0.26385900000000007 306.63900000000007 3.5000000000000004 0.11802950000000002 51322450.000000007 298.18700000000007 0.17620450000000001 1.0000000180025095e-35 65.542200000000022 39298550.000000007 2.5000000000000004 39853100.000000007 12594550.000000002 1.5000000000000002 1.9235250000000002 0.29870050000000004 2.5000000000000004 70.041150000000016 15107400.000000002 28352250.000000004 151.07950000000002 3.2031400000000008 189.63350000000003 68.948100000000025 70551400.000000015 1.5000000000000002 274.7580000000001 83.435800000000015
decision_type=2 2 2 2 2 2 2 2 2 2 2 2 2 2 2 2 2 2 2 2 2 2 2 2 2 2 2 2 2 2
left_child=1 2 4 7 5 -1 11 9 17 10 16 14 13 -13 15 -2 -3 -7 19 25 21 -16 23 24 -20 -11 27 -22 -25 -30
right_child=6 3 -4 -5 -6 8 -8 -9 -10 18 -12 12 -14 -15 20 -17 -18 -19 22 -21 26 -23 -24 28 -26 -27 -28 -29 29 -31
leaf_value=0.0063300195723808243 -0.11605528524364186 0.07182211578372058 -0.088668872818263578 -0.018870729261581565 -0.056854885388510634 0.10238554057916885 -0.028961797288106807 0.046792950295432997 0.051975872514248511 0.1143790124156806 0.01631067920493922 0.050545281986467495 -0.1132969019478314 -0.11843243624832217 -0.1138182123413206 -0.037420406194669104 0.11444033695412451 0.13621596450059706 0.11465020271723986 0.035815717696752611 -0.11434750104807918 -0.067414583764977817 0.13133966038459685 0.11417617416325838 0.074167696388050416 0.12336685993995614 -0.11618912151920396 -0.11313951260660111 0.11439738768765306 0.11779439614701451
leaf_weight=7.9511321559548476 4.8771834149956694 2.292778983712199 5.282479152083396 2.3863071054220191 3.7663680911064139 3.1680882051587087 4.6927395910024634 2.8302739560604087 3.5812191367149353 12.170050337910654 4.8234343826770774 2.8490387350320843 22.192783743143082 3.1917809545993805 8.2690898701548559 2.9904521107673645 26.087293714284897 3.0792126283049583 11.774909488856791 2.2105512246489516 14.344803079962729 2.1384121924638739 2.5289423167705527 255.11183384805918 2.4196277633309355 2.3549439981579772 3.2403734549880019 269.15318841487169 3.0763567984104148 2.4032906293869019
leaf_count=39 38 20 34 15 21 20 25 22 18 111 25 19 215 25 78 21 237 24 106 15 133 20 14 2349 21 17 28 2623 28 20
internal_value=-0.000166732 0.102978 0.0110981 0.110392 0.0355581 0.0551345 -0.109831 0.111327 0.0946166 0.111885 0.0972423 -0.11097 -0.0973442 -0.0387373 -0.112231 -0.0861665 0.110997 0.11906 0.113538 0.105267 -0.112921 -0.104284 0.114038 0.113878 0.107749 0.115836 -0.113234 -0.113201 0.114212 0.115887
internal_weight=697.239 359.299 26.8285 332.471 21.546 17.7797 337.94 330.084 9.82852 327.254 33.2035 333.247 28.2336 6.04082 305.014 7.86764 28.3801 6.2473 294.051 16.7355 297.146 10.4075 277.315 274.786 14.1945 14.525 286.738 283.498 260.591 5.47965
internal_count=6381 3156 156 3000 122 101 3225 2985 62 2963 282 3200 259 44 2941 59 257 44 2681 143 2882 98 2538 2524 127 128 2784 2756 2397 48
is_linear=0
shrinkage=0.1


Tree=15
num_leaves=31
num_cat=0
split_feature=1 1 2 1 12 2 18 20 27 11 1 16 11 11 15 13 13 17 25 2 21 15 23 9 1 20 13 9 20 14
split_gain=700.415 23.0637 5.52038 3.78539 3.25815 3.1681 3.02672 1.00066 0.998337 0.5878 2.89338 5.56299 0.571297 1.41749 0.527869 1.14894 0.387483 0.220315 0.241193 0.191221 0.250588 0.183259 0.0892418 0.440712 1.06403 0.0103475 0.00586067 0.0203387 0.00133738 0.00116459
threshold=478.25850000000008 0.8570230000000002 0.26385900000000007 151.07950000000002 3.5000000000000004 46359450.000000007 0.11802950000000002 0.55900900000000009 0.17620450000000001 2.5000000000000004 65.542200000000022 66.835750000000004 1.5000000000000002 1.0000000180025095e-35 65812100.000000007 39298550.000000007 7817100.0000000009 93454350.000000015 26373600.000000004 12393000.000000002 5044580.0000000009 0.29870050000000004 4.9865550000000001 2.5000000000000004 80.284650000000013 142839.50000000003 44666100.000000007 2.5000000000000004 309.98500000000007 256.61000000000007
decision_type=2 2 2 2 2 2 2 2 2 2 2 2 2 2 2 2 2 2 2 2 2 2 2 2 2 2 2 2 2 2
left_child=1 2 4 7 6 12 -1 -3 21 10 -9 -12 13 16 17 -16 -2 19 -19 20 -14 -8 23 24 -11 -21 -27 -28 29 -24
right_child=5 3 -4 -5 -6 -7 8 9 -10 22 11 -13 14 -15 15 -17 -18 18 -20 25 -22 -23 28 -25 -26 26 27 -29 -30 -31
leaf_value=0.0057036671671786398 -0.066029727132526111 0.053724329690343887 -0.083242462340184703 0.01998841305362865 -0.052700463652607138 -0.025547218582411282 0.097707292370302318 0.11278507119199584 0.04757963196206115 0.11355858525385364 -0.044432478595682126 0.12543967465739214 -0.11404115929090744 -0.03570416634621406 -0.11228767392979021 -0.020589113111230614 -0.11235930777868915 -0.1120047272514469 -0.062469283850053625 -0.11719872438003608 -0.065757185862353115 0.13313512553464696 0.1126975654598488 0.11271602996394854 0.028461562727199533 -0.11174733417598336 -0.12086440392005922 -0.11179827578902093 0.11493643570877854 0.11454120761959873
leaf_weight=7.9423471316695311 2.096045725047591 3.1539382785558692 5.0751671046018592 4.7718916535377494 3.662536345422267 4.5590892285108557 2.9967762231826764 29.795086205005646 3.5240083187818527 4.1924791112542144 3.6986462920904151 4.0265075266361237 2.2221413627266875 3.5493336766958228 4.0859333351254454 2.052906334400177 13.011976197361944 2.0087726861238475 1.9248229712247846 3.676954671740531 2.0818879827857018 2.8473530113697052 220.13146677613258 28.042509794235229 2.262192040681839 254.50873954594135 3.1909830048680297 11.019747316837309 2.7717435881495467 3.4804230108857146
leaf_count=39 20 26 34 25 21 24 20 297 18 40 18 29 21 26 42 18 134 21 19 33 20 24 2207 281 19 2707 23 117 26 32
internal_value=-0.000167033 0.100676 0.0103414 0.108358 0.0329873 -0.108292 0.0511171 0.109756 0.0896187 0.110348 0.098645 0.0441083 -0.109528 -0.0925717 -0.110631 -0.0816225 -0.105932 -0.111265 -0.0877656 -0.111599 -0.0906859 0.114968 0.112031 0.107293 0.0837343 -0.11193 -0.111858 -0.113834 0.112753 0.112726
internal_weight=642.364 332.375 26.0482 306.327 20.973 309.989 17.3105 301.555 9.36814 298.401 37.5202 7.72515 305.43 18.6574 286.773 6.13884 15.108 280.634 3.9336 276.7 4.30403 5.84413 260.881 34.4972 6.45467 272.396 268.719 14.2107 226.384 223.612
internal_count=6381 3156 156 3000 122 3225 101 2975 62 2949 344 47 3201 180 3021 60 154 2961 40 2921 41 44 2605 340 59 2880 2847 140 2265 2239
is_linear=0
shrinkage=0.1


Tree=16
num_leaves=31
num_cat=0
split_feature=20 1 2 1 18 2 3 8 20 13 8 9 26 11 1 16 12 15 1 20 10 23 9 1 1 25 1 11 11 15
split_gain=622.928 21.9777 4.65189 3.91989 3.77715 3.21487 2.73362 2.56419 1.6184 0.691089 2.88064 1.27516 0.668544 0.563876 2.32908 4.30256 0.477956 0.420999 0.653934 0.946593 0.39826 0.0974534 0.463734 1.11208 0.0942551 0.447864 0.0428285 0.00224814 0.00777654 0.00168078
threshold=376.53750000000008 0.8570230000000002 0.26385900000000007 151.07950000000002 350.67800000000005 46359450.000000007 4.5000000000000009 1.5000000000000002 0.42449250000000005 39298550.000000007 1.5000000000000002 1.5000000000000002 298.18700000000007 2.5000000000000004 65.542200000000022 67.840450000000018 1.5000000000000002 3373.3350000000005 12594550.000000002 5799645.0000000009 7.5000000000000009 4.9865550000000001 2.5000000000000004 81.042100000000019 15107400.000000002 14772600.000000002 151.07950000000002 1.5000000000000002 1.0000000180025095e-35 45849650.000000007
decision_type=2 2 2 2 2 2 2 2 2 2 2 2 2 2 2 2 2 2 2 2 2 2 2 2 2 2 2 2 2 2
left_child=1 2 6 -2 8 9 7 16 -3 17 -11 -12 13 14 -10 -16 -1 20 19 -19 -5 22 23 -15 25 -20 -23 28 -26 -13
right_child=3 4 -4 5 -6 -7 -8 -9 12 10 11 29 -14 21 15 -17 -18 18 24 -21 -22 26 -24 -25 27 -27 -28 -29 -30 -31
leaf_value=0.11349254507763731 0.13277298396465401 0.019177971773378259 -0.078105819872243576 -0.17018569126063537 -0.033200759405089784 -0.023295592743316853 -0.028381590418298852 0.00026712873482738931 0.11142214113159106 0.018932415391503091 -0.033015165826413742 -0.11072069756602786 0.051565581002649512 0.11210420062025205 -0.020584387857642966 0.12243975930305624 0.066945532177485265 -0.025049751636323572 -0.11123172604031069 -0.11280771996564601 -0.11032663559433241 0.11135884268383488 0.11140250410396382 0.022269475494406766 -0.11074696802294173 -0.054782771105475463 0.12619220429293193 -0.11050107831436076 -0.11736348187223632 -0.11328640542339732
leaf_weight=3.7429233416914993 0.68277719616889854 2.0418390855193129 4.8785087689757338 2.2421420961618415 1.9106873124837864 4.5028507262468329 5.6783891394734374 5.6391564831137648 27.272553212940693 2.1215295344591167 2.3340269550681141 17.095887258648876 2.044713780283927 3.9365092739462879 4.1885581463575345 4.2249395772814751 5.3723254799842834 2.2233411148190489 7.1069686189293844 2.7485761940479279 2.2041607350111008 205.34311705082655 25.816158123314381 2.1201806589961052 10.404912211000918 1.7519932389259336 1.9651260524988163 224.48585388809443 2.1420416906476012 3.0015592426061621
leaf_count=37 4 17 34 16 15 24 31 28 297 16 19 197 18 41 20 32 26 20 79 28 26 2248 282 18 119 19 12 2611 17 30
internal_value=-0.00016352 0.0988779 0.00963016 -0.106546 0.106921 -0.10712 0.0305779 0.0532691 0.107881 -0.108469 -0.0924448 -0.102979 0.108535 0.108958 0.0972326 0.0512369 0.0860588 -0.11001 -0.109469 -0.0735641 -0.140512 0.110708 0.10556 0.080657 -0.110195 -0.100068 0.111499 -0.110574 -0.111877 -0.111104
internal_weight=591.224 306.176 25.3113 285.049 280.864 284.366 20.4328 14.7544 278.954 279.863 24.553 22.4315 276.912 274.867 35.6861 8.4135 9.11525 255.31 250.864 4.97192 4.4463 239.181 31.8728 6.05669 245.892 8.85896 207.308 237.033 12.547 20.0974
internal_count=6381 3156 156 3225 3000 3221 122 91 2985 3197 262 246 2968 2950 349 52 63 2935 2893 48 42 2601 341 59 2845 98 2260 2747 136 227
is_linear=0
shrinkage=0.1


Tree=17
num_leaves=31
num_cat=0
split_feature=21 1 20 11 1 8 5 4 12 20 1 20 13 9 20 26 11 13 4 15 1 23 9 1 1 21 1 1 13 11
split_gain=553.852 20.9967 4.73598 4.24412 3.21536 2.35806 2.20764 2.05899 1.62237 1.60332 0.754926 1.36979 0.724065 2.48214 4.71272 0.673458 0.600611 2.40417 5.69825 0.384366 0.110904 0.103551 0.486541 1.08045 0.0986849 0.480953 0.0301335 0.00592238 0.00320177 0.00132783
threshold=408.96850000000001 0.8570230000000002 376.53750000000008 2.5000000000000004 51322450.000000007 1.5000000000000002 1.5000000000000002 1.5000000000000002 1.5000000000000002 0.42449250000000005 12594550.000000002 2760630.0000000005 39298550.000000007 2.5000000000000004 23532500.000000004 298.18700000000007 2.5000000000000004 64.441800000000015 1.5000000000000002 108.16200000000002 65.542200000000022 4.9865550000000001 2.5000000000000004 81.042100000000019 15107400.000000002 12530400.000000002 151.07950000000002 56.968250000000005 264.61150000000004 1.5000000000000002
decision_type=2 2 2 2 2 2 2 2 2 2 2 2 2 2 2 2 2 2 2 2 2 2 2 2 2 2 2 2 2 2
left_child=1 3 9 5 10 6 8 -5 -1 -3 11 -2 24 14 -14 16 17 19 27 20 -11 22 23 -18 25 -12 -23 -19 -26 -30
right_child=4 2 -4 7 -6 -7 -8 -9 -10 15 12 -13 13 -15 -16 -17 21 18 -20 -21 -22 26 -24 -25 28 -27 -28 -29 29 -31
leaf_value=0.082732714736506049 -0.01199604750361611 0.017510882916027003 -0.061755922600777141 -0.1199432349483006 -0.021084508978502652 -0.012495257470493501 0.12403289340964724 -0.0023273924868811645 -0.0090476822986423813 0.11019977419263803 -0.11032075836317726 -0.11211849703098359 0.066045284805806029 -0.10965122420416532 -0.1149250635364813 0.048855154075977403 0.11082144618664574 0.11025157804856034 -0.064161059825528249 0.064113173973948681 0.12894598223279649 0.11016569729051057 0.11021329270835876 0.020384587049220415 -0.1133960874315646 -0.049813168354070986 0.12309319985587996 0.11745873727168608 -0.11053336453032046 -0.10941772694915904
leaf_weight=3.3721754476428085 2.3446324691176406 2.0141249075531951 1.6862977892160405 3.1589330434799185 4.4739679768681517 7.2451045140624037 3.6943846195936203 2.814570426940918 4.4908619076013565 19.876332916319377 6.6741949841380102 3.2752360701560974 2.6012441962957409 17.122702717781067 3.2205903828144073 1.9708100482821453 3.6010141521692303 2.9447006061673155 2.9158038347959518 1.7124713212251652 3.7515455633401862 188.00291835516691 23.704308897256851 2.0864490196108818 2.1029472425580016 1.6355860307812689 1.8205633759498585 1.8605592548847196 11.2493934109807 206.54488519579172
leaf_count=36 19 17 11 28 25 35 20 16 21 237 80 35 17 215 30 18 41 35 17 15 27 2251 283 18 22 19 12 18 134 2629
internal_value=-0.000160161 0.0968356 0.105281 0.00890416 -0.105131 0.0322325 0.0602714 -0.0645255 0.0303136 0.106381 -0.106595 -0.070347 -0.107406 -0.0904726 -0.034066 0.107085 0.10754 0.0949754 0.0461226 0.109861 0.113176 0.109434 0.103911 0.0776446 -0.109109 -0.0984113 0.11029 0.113042 -0.109513 -0.109475
internal_weight=543.969 282.724 257.948 24.776 261.245 18.8025 11.5574 5.9735 7.86304 256.262 256.771 5.61987 251.152 22.9445 5.82183 254.247 252.277 33.0614 7.72106 25.3403 23.6279 219.215 29.3918 5.68746 228.207 8.30978 189.823 4.80526 219.897 217.794
internal_count=6381 3156 3000 156 3225 112 77 44 57 2989 3200 54 3146 262 47 2972 2954 349 70 279 264 2605 342 59 2884 99 2263 53 2785 2763
is_linear=0
shrinkage=0.1


Tree=18
num_leaves=31
num_cat=0
split_feature=21 1 20 2 12 2 2 20 2 15 25 1 20 13 9 20 10 1 16 1 13 31 14 1 27 11 11 20 15 26
split_gain=492.799 20.0614 4.31915 3.66527 3.42536 3.25144 2.32981 1.58825 1.49057 2.69726 0.812605 0.79967 1.31161 0.733003 2.35346 4.2197 0.703425 3.61569 7.91649 0.107426 0.513248 0.0699769 0.470857 0.0269199 0.0215011 0.00124367 0.00428943 0.000833409 0.000716339 0.000685148
threshold=408.96850000000001 0.8570230000000002 376.53750000000008 0.26385900000000007 4.5000000000000009 46359450.000000007 0.01707755 0.42449250000000005 0.037306800000000008 0.22968850000000005 0.28646250000000006 12594550.000000002 2760630.0000000005 39298550.000000007 2.5000000000000004 23532500.000000004 2.5000000000000004 65.542200000000022 66.835750000000004 15107400.000000002 29361950.000000004 184.25550000000001 132.18400000000003 151.07950000000002 13.585150000000002 1.5000000000000002 1.0000000180025095e-35 142839.50000000003 62870700.000000007 270.88600000000002
decision_type=2 2 2 2 2 2 2 2 2 2 2 2 2 2 2 2 2 2 2 2 2 2 2 2 2 2 2 2 2 2
left_child=1 3 7 4 6 11 -1 -3 -8 -10 -11 12 -2 19 15 -15 17 -9 -19 20 -13 23 -23 29 -20 26 -21 -27 -16 -18
right_child=5 2 -4 -5 -6 -7 8 16 9 10 -12 13 -14 14 28 -17 21 18 24 25 -22 22 -24 -25 -26 27 -28 -29 -30 -31
leaf_value=-0.021369880458033664 -0.01085000764704353 0.01596997591026934 -0.05534752483992901 -0.072576612639181262 -0.067362143525484669 -0.018301032557647614 0.11871893783783681 0.10919413686798901 -0.025202982101650419 0.12691262869166925 0.047897598610392424 -0.10933454258960136 -0.11084152862241536 0.057078724520207319 -0.10847699122705215 -0.11380173238492181 0.10914909322510298 -0.054404791862889539 0.12409537357237198 -0.10861446628242938 -0.044504391525044415 0.10904776672817365 0.066535448072588182 0.12128222643636927 0.11175802721439093 -0.11048443318133859 -0.1138370868538349 -0.10842673765388762 -0.11075073720415851 0.1108732564691159
leaf_weight=3.9597994089126685 2.3336640596389762 1.9889963269233693 1.6930090561509121 4.5582051426172248 3.2191753610968581 4.3704794347286215 3.8181417733430854 39.328554131090641 3.4282345697283727 2.7119712382555008 2.5026265382766724 6.1422163322567931 2.9959467276930809 2.7030041143298176 14.300696112215517 3.1052298098802567 156.28258249908686 4.6511897370219213 3.724682979285717 8.6702126935124362 1.5241919457912443 19.459009528160099 3.0080465823411933 1.8578301519155491 2.2756233215332031 1.9891695305705059 1.9210632070899016 187.80226232856512 1.534242957830428 2.3392699360847464
leaf_count=18 19 17 11 34 20 24 25 511 19 26 14 80 35 17 199 31 2044 29 29 119 19 256 37 13 26 25 18 2621 18 27
internal_value=-0.000160948 0.0949343 0.103804 0.00820918 0.0269586 -0.103763 0.0454495 0.104951 0.0666832 0.0436953 0.0889912 -0.105352 -0.0670585 -0.106241 -0.088726 -0.0342783 0.105711 0.0951967 0.0435139 -0.108063 -0.0964454 0.108583 0.103356 0.109315 0.119416 -0.108507 -0.109562 -0.108448 -0.108697 0.109175
internal_weight=500.199 260.807 236.609 24.1982 19.6399 239.392 16.4208 234.916 12.461 8.64283 5.2146 235.022 5.32961 229.692 21.6432 5.80823 232.927 49.9801 10.6515 208.049 7.66641 182.947 22.4671 160.48 6.00031 200.383 10.5913 189.791 15.8349 158.622
internal_count=6381 3156 3000 156 122 3225 102 2989 84 59 40 3201 54 3147 265 48 2972 595 84 2882 99 2377 293 2084 55 2783 137 2646 217 2071
is_linear=0
shrinkage=0.1


Tree=19
num_leaves=31
num_cat=0
split_feature=21 2 10 17 4 11 3 17 20 2 2 18 5 1 11 17 1 23 12 26 15 17 25 21 13 1 2 20 20 13
split_gain=438.878 19.046 4.8431 4.1952 3.39512 18.4287 3.07382 1.88736 1.83791 1.86188 1.1069 0.790043 0.771334 4.25543 0.674006 0.491349 0.335115 0.297399 0.206232 1.74932 0.202366 0.232784 0.407191 0.0901598 0.553596 0.0185002 0.0132369 0.0113318 0.0110199 0.00517591
threshold=408.96850000000001 19.668150000000004 2.5000000000000004 306.63900000000007 1.0000000180025095e-35 2.5000000000000004 4.5000000000000009 44841800.000000007 0.55900900000000009 0.037306800000000008 122.92650000000002 213.45600000000005 1.0000000180025095e-35 65.542200000000022 1.5000000000000002 5694905.0000000009 478.25850000000008 0.23051200000000002 2.5000000000000004 82.541100000000014 81263650.000000015 93454350.000000015 27333150.000000004 3.2031400000000008 108.61800000000001 41942850.000000007 46.769200000000005 309.98500000000007 142839.50000000003 44666100.000000007
decision_type=2 2 2 2 2 2 2 2 2 2 2 2 2 2 2 2 2 2 2 2 2 2 2 2 2 2 2 2 2 2
left_child=1 2 6 10 5 7 8 15 9 -1 12 -6 13 -3 -13 -2 -16 -11 19 26 21 25 -23 24 -20 28 -14 -25 -18 -30
right_child=4 3 -4 -5 11 -7 -8 -9 -10 17 -12 14 18 -15 16 -17 20 -19 23 -21 -22 22 -24 27 -26 -27 -28 -29 29 -31
leaf_value=0.070999761564713423 -0.048795008547442502 0.108392929381509 -0.10062719979314001 -0.044466338428376669 -0.0020855292305381324 0.27586572659321368 -0.031362426058974831 0.012606883487789737 0.12204327132684085 0.016495797116089731 0.038129339832947591 -0.062998393954663251 0.10855911134773473 -0.0030994649894859603 -0.18922823626186708 -0.10855028513042256 -0.11377062871376019 -0.028070516987709494 0.10875304735512029 -0.005072560613889345 -0.077380125852127904 -0.11132970272951084 -0.039766830777868349 0.10828041523995541 0.041985266620347142 -0.11851347037488764 0.11871878629634225 0.11552643095584958 -0.10760542345844393 -0.10992305347011277
leaf_weight=6.7935239374637657 1.5347383618354857 18.188405551016334 3.3597128465771666 1.916210152208804 0.72643875330686469 1.4909983053803433 6.2038927376270285 1.579549267888068 3.0077772364020339 3.0370472520589828 2.5087555497884741 3.4900484830141059 7.4313652887940389 4.2170877903699866 0.49837979674339195 13.309206672012804 3.0720263235270968 2.9535502567887306 7.948121212422846 1.539094567298888 2.2611303925514212 1.8729847073554986 1.3816062510013578 166.05626437067986 1.4717736244201658 1.6348873376846302 1.5498653873801229 2.1866592764854422 176.20721198990941 10.193481355905531
leaf_count=38 17 256 26 15 8 12 38 20 38 25 18 32 104 25 2 189 36 17 109 14 21 25 18 2373 19 17 15 26 2689 139
internal_value=-0.000156445 0.0931701 0.0111992 0.102836 -0.102471 -0.060754 0.0282799 -0.0913139 0.0517106 0.0351631 0.104161 -0.106183 0.104948 0.0874082 -0.10656 -0.102372 -0.107331 -0.00547678 0.107036 0.0934318 -0.107124 -0.10747 -0.0809506 0.107842 0.0983212 -0.107921 0.110312 0.108375 -0.10783 -0.107732
internal_weight=459.622 240.369 25.3555 215.014 219.253 17.9145 21.9958 16.4235 15.7919 12.7841 213.097 201.338 210.589 22.4055 200.612 14.8439 197.122 5.9906 188.183 10.5203 196.623 194.362 3.25459 177.663 9.41989 191.108 8.98123 168.243 189.473 186.401
internal_count=6381 3156 182 2974 3225 238 156 226 118 80 2959 2987 2941 281 2979 206 2947 42 2660 133 2945 2924 43 2527 128 2881 119 2399 2864 2828
is_linear=0
shrinkage=0.1


Tree=20
num_leaves=31
num_cat=0
split_feature=1 2 20 10 4 2 3 14 22 4 22 23 10 1 16 11 13 12 7 21 2 1 2 27 24 20 13 11 9 20
split_gain=390.819 18.2643 6.05681 4.1016 3.42734 15.679 2.55235 2.41921 1.80288 1.83594 1.60178 1.3981 1.0811 4.4978 8.71986 0.722134 0.232077 1.32542 0.0662671 0.649887 0.0311058 0.0186636 0.0152213 0.0133075 0.00680955 0.00192786 0.00171815 0.00229902 0.00129167 0.000539855
threshold=478.25850000000008 19.668150000000004 376.53750000000008 2.5000000000000004 1.0000000180025095e-35 38185600.000000007 4.5000000000000009 16105800.000000002 1.0000000180025095e-35 1.5000000000000002 0.22389450000000002 0.13824400000000003 2.5000000000000004 65.542200000000022 66.835750000000004 1.5000000000000002 49314900.000000007 4.5000000000000009 1.0000000180025095e-35 77.673750000000013 36227600.000000007 151.07950000000002 38185600.000000007 13.585150000000002 58347.200000000004 0.67865150000000007 44666100.000000007 3.5000000000000004 2.5000000000000004 0.82943250000000013
decision_type=2 2 2 2 2 2 2 2 2 2 2 2 2 2 2 2 2 2 2 2 2 2 2 2 2 2 2 2 2 2
left_child=1 3 12 6 5 7 8 -2 -1 11 -11 -10 13 29 -15 -6 22 -18 19 28 -19 25 24 -16 -17 -20 -26 -28 -14 -3
right_child=4 2 -4 -5 15 -7 -8 -9 9 10 -12 -13 18 14 23 16 17 20 21 -21 -22 -23 -24 -25 26 -27 27 -29 -30 -31
leaf_value=0.12595546548597339 -0.0042835672405399216 0.10928390537404249 -0.077902517102559077 -0.095339969447596207 -0.059337269083897408 0.24385913098052081 -0.028278101891569537 -0.10755597617362851 0.037358426830418727 0.023273485794111461 0.12774596250077663 -0.052213675984407085 0.1103915331525778 -0.066529509040516757 0.12163959642238298 -0.11185923166340733 -0.016728318419918699 -0.10724965283224129 0.11035362478591684 0.033153770202486742 -0.1239080857337081 0.11810592667008935 -0.11602949211886288 0.11152473178276984 -0.10684233732678061 0.10735330106066648 -0.11214659960631737 -0.1067731059422648 0.10739773029979374 0.10740296152152536
leaf_weight=2.4730825535953107 2.7651958800852308 1.607569351792338 1.8678184896707524 3.1998884305357924 3.3426976390182963 1.5584505945444114 6.1930951178073874 12.623623393476008 4.0233280435204488 3.014076940715313 2.8602489158511162 3.0739885196089745 1.7130783572792978 4.8294750377535802 3.3654256016016006 2.8012004233896723 1.9129148982465247 5.6922104693949223 2.1754443310201159 1.3047998026013363 1.3957751803100107 1.6475264504551876 1.875004868954419 2.120075199753046 163.25108291953802 137.67000714316964 1.4395566657185548 1.7816171608865259 9.0784126371145248 30.035249765962362
leaf_count=32 32 22 9 26 32 8 38 198 27 17 24 18 21 30 29 35 17 92 27 19 11 13 22 27 2731 2166 17 30 142 469
internal_value=-0.000164404 0.0911509 0.101319 0.0103321 -0.101417 -0.0583899 0.0259593 -0.0889991 0.0477077 0.0327895 0.0741418 -0.00143703 0.103031 0.088805 0.0314598 -0.105391 -0.106246 -0.0905949 0.106917 0.0998132 -0.11053 0.107525 -0.107069 0.11773 -0.10697 0.1074 -0.106887 -0.109175 0.107873 0.107499
internal_weight=422.692 222.253 197.415 24.8377 200.439 16.9473 21.6378 15.3888 15.4447 12.9716 5.87433 7.09732 195.547 41.9578 10.315 183.492 180.149 9.0009 153.589 12.0963 7.08799 141.493 171.148 5.4855 169.273 139.845 166.472 3.22117 10.7915 31.6428
internal_count=6381 3156 2974 182 3225 238 156 230 118 86 41 45 2965 577 86 2987 2955 120 2388 182 103 2206 2835 56 2813 2193 2778 47 163 491
is_linear=0
shrinkage=0.1


Tree=21
num_leaves=31
num_cat=0
split_feature=1 2 20 10 4 2 14 3 12 12 10 1 16 11 15 17 22 7 31 1 13 8 27 15 20 20 15 18 9 26
split_gain=348.301 17.495 5.47643 3.47948 3.38421 12.4809 2.35493 2.13997 1.66588 2.23138 1.12921 4.43512 7.57164 0.774998 0.277401 0.28292 0.446515 0.0724412 0.726224 0.0133991 0.0112017 0.0191396 0.0096065 0.00287814 0.00284233 0.00140142 0.00134424 0.00118878 0.000823397 0.000627605
threshold=478.25850000000008 19.668150000000004 376.53750000000008 2.5000000000000004 1.0000000180025095e-35 38185600.000000007 16105800.000000002 4.5000000000000009 1.5000000000000002 2.5000000000000004 2.5000000000000004 65.542200000000022 66.835750000000004 1.5000000000000002 81263650.000000015 93454350.000000015 16934850.000000004 1.0000000180025095e-35 174.36750000000004 151.07950000000002 44666100.000000007 2.5000000000000004 13.585150000000002 44934750.000000007 142839.50000000003 0.67865150000000007 70551400.000000015 0.29567450000000006 2.5000000000000004 298.18700000000007
decision_type=2 2 2 2 2 2 2 2 2 2 2 2 2 2 2 2 2 2 2 2 2 2 2 2 2 2 2 2 2 2
left_child=1 3 10 7 5 6 -2 8 27 -10 11 -3 -13 -6 15 20 -17 18 28 25 24 -22 -14 -23 -15 -19 -26 -1 -12 -27
right_child=4 2 -4 -5 13 -7 -8 -9 9 -11 17 12 22 14 -16 16 -18 19 -20 -21 21 23 -24 -25 26 29 -28 -29 -30 -31
leaf_value=0.1110582241732649 -0.0038688340200978598 0.10673505147817033 -0.069421634778729244 -0.090211739310669281 -0.055789903644756958 0.19916971528392755 -0.10678890915124072 -0.02549518432526221 -0.0094746276735771257 0.078657280036693561 0.10907067844965301 -0.058034724767337002 0.11934066186913504 -0.10949104295255555 -0.068345061690237838 -0.10868003906263977 -0.027873213807817938 0.10928229476522611 0.02367728415872683 0.11610708599599616 -0.11818098526124221 -0.10655998703493619 0.11036492192417593 -0.11180983386804946 -0.10613662448799306 0.10658408069494166 -0.10966649203712708 0.10715283121235752 0.10667990092783448 0.10895055653333226
leaf_weight=1.389820903539664 2.755970332771537 28.825933627784252 1.8853812813758839 3.0514825880527487 3.2069621235132209 1.7079058736562736 11.500179093331097 6.1827580481767646 6.9073762074112874 4.9183908924460411 1.7480470649898023 4.9744125530123693 3.1008022576570511 2.61139116808772 1.9929172508418549 1.610219914466142 1.1885708346962927 1.986732032150029 1.1659448668360699 1.5150849372148503 2.0965752042829973 6.4743703939020634 1.9374506697058675 1.2451151721179483 145.90800243988633 124.26731937006116 1.0868854112923134 1.7746761702001093 8.189486850053072 1.1308808624744404
leaf_count=16 32 491 9 26 32 8 198 38 37 36 24 30 29 38 21 26 17 27 18 13 20 115 27 16 2685 2151 17 29 140 15
internal_value=-0.000161977 0.0894216 0.100118 0.00961939 -0.100281 -0.0562884 -0.0868926 0.0240072 0.0444245 0.0271798 0.101906 0.086819 0.0294816 -0.104476 -0.105427 -0.105882 -0.0743636 0.106091 0.0983404 0.106758 -0.106436 -0.109708 0.115889 -0.107407 -0.106221 0.106647 -0.106163 0.108868 0.1071 0.106605
internal_weight=388.337 204.952 180.727 24.2245 183.385 15.9641 14.2561 21.173 14.9903 11.8258 178.842 38.8386 10.0127 167.421 164.214 162.221 2.79879 140.003 11.1035 128.9 159.422 9.81606 5.03825 7.71949 149.606 127.385 146.995 3.1645 9.93753 125.398
internal_count=6381 3156 2974 182 3225 238 230 156 118 73 2965 577 86 2987 2955 2934 43 2388 182 2206 2891 151 56 131 2740 2193 2702 45 164 2166
is_linear=0
shrinkage=0.1


Tree=22
num_leaves=31
num_cat=0
split_feature=21 2 2 17 4 11 2 4 17 1 5 3 1 13 24 11 11 16 24 13 12 12 25 20 21 13 24 1 2 20
split_gain=310.394 17.0605 4.23245 3.72547 3.29707 11.371 2.56849 2.32201 2.14677 1.39669 1.39137 3.67436 1.28237 1.23998 1.18169 1.06266 0.81824 1.2262 0.353209 0.3158 1.43311 0.274363 2.1317 0.100386 0.119038 0.645209 0.0547378 0.0457059 0.019773 0.018304
threshold=408.96850000000001 0.49026700000000006 0.26385900000000007 306.63900000000007 1.0000000180025095e-35 5.5000000000000009 0.01707755 1.5000000000000002 46560450.000000007 12594550.000000002 1.0000000180025095e-35 1.5000000000000002 151.07950000000002 87.335600000000014 0.16393350000000004 1.5000000000000002 1.5000000000000002 118.4825 109.01300000000002 49314900.000000007 4.5000000000000009 2.5000000000000004 76.478000000000023 0.55900900000000009 3.2031400000000008 108.61800000000001 58347.200000000004 65.542200000000022 38185600.000000007 309.98500000000007
decision_type=2 2 2 2 2 2 2 2 2 2 2 2 2 2 2 2 2 2 2 2 2 2 2 2 2 2 2 2 2 2
left_child=1 2 6 10 5 8 -1 14 9 -2 11 13 21 18 -8 -9 -6 -18 27 26 -21 22 -12 -23 25 -25 -19 -3 -22 -26
right_child=4 3 -4 -5 16 -7 7 15 -10 -11 12 -13 -14 -15 -16 -17 17 19 -20 20 28 23 -24 24 29 -27 -28 -29 -30 -31
leaf_value=-0.035794808983158476 -0.018871484450729975 0.10600146511982361 -0.099981283164404799 -0.046185272194968117 -0.052356837902109633 0.23891793766875313 0.040786190167056403 0.12555174569124369 0.049541684068295871 -0.10717352677530111 0.1081346946929833 -0.03188994913789963 0.028627594530097469 0.012717461823635565 -0.048602672452238233 0.049785392268583167 0.084774448624979667 -0.11899163308968352 0.05276283893405162 -0.0059447629442835447 -0.10585883936393903 0.13018588326468483 -0.036167152642454306 0.10641237223552261 0.1060625829951663 0.026641622476737983 -0.10561413566796006 0.12644082264431106 -0.12065003567266597 0.11616116859562316
leaf_weight=5.2708715274930062 2.1606325283646575 11.554071430116894 3.2667880430817595 1.7546523101627816 3.0821925252676001 1.2157908976078022 3.2402165271341783 3.3454396091401577 1.1694229133427132 10.478055026382206 6.9652245156466943 2.7633803486824027 2.2486988455057135 1.7095129191875447 2.7206360027194023 4.1444062665104866 0.34183232113718887 3.1275908201932898 1.2763120047748078 1.7628936432301987 4.821146585047245 1.6671611815690983 1.2001078911125658 6.0540063753724089 125.36794822663069 1.2179234847426412 138.87078547477722 1.208482839167117 1.1123029589653013 1.8209088258445252
leaf_count=26 26 217 26 15 32 5 35 30 14 193 121 29 18 21 17 22 4 39 14 17 94 20 11 109 2371 19 2792 9 9 26
internal_value=-0.000159555 0.0878442 0.0050479 0.0987582 -0.0989734 -0.0542692 0.0233748 0.0465613 -0.080084 -0.092078 0.100299 0.0744666 0.103562 0.0931291 -1.24299e-05 0.0836274 -0.10336 -0.104407 0.102921 -0.104839 -0.0851106 0.10473 0.0869258 0.105798 0.105496 0.0930521 -0.105909 0.107937 -0.108632 0.106207
internal_weight=356.939 188.797 21.9884 166.808 168.143 15.0239 18.7216 13.4507 13.8081 12.6387 165.054 18.5118 146.542 15.7484 5.96085 7.48985 153.119 150.037 14.0389 149.695 7.69634 144.293 8.16533 136.128 134.461 7.27193 141.998 12.7626 5.93345 127.189
internal_count=6381 3156 156 3000 3225 238 130 104 233 219 2985 290 2695 261 52 52 2987 2955 240 2951 120 2677 132 2545 2525 128 2831 226 103 2397
is_linear=0
shrinkage=0.1


Tree=23
num_leaves=31
num_cat=0
split_feature=18 2 24 4 11 10 17 3 8 17 5 0 21 5 1 11 13 15 15 17 25 12 14 1 21 0 2 20 13 13
split_gain=276.781 16.2564 6.7466 3.21099 9.59931 2.69822 2.49581 1.81809 1.57335 1.36497 1.2875 1.92892 1.20009 0.987559 4.13246 0.885456 0.593265 0.494412 0.360089 0.342023 0.486332 0.271683 2.0793 0.234083 0.131267 0.67192 0.0197969 0.0141208 0.0116934 0.00773199
threshold=350.67800000000005 19.668150000000004 409.09550000000007 1.0000000180025095e-35 2.5000000000000004 2.5000000000000004 47879850.000000007 4.5000000000000009 1.5000000000000002 306.63900000000007 1.5000000000000002 10.500000000000002 327.89650000000006 1.0000000180025095e-35 65.542200000000022 1.5000000000000002 7817100.0000000009 0.22968850000000005 81263650.000000015 93454350.000000015 27333150.000000004 2.5000000000000004 112.35950000000001 478.25850000000008 3.2031400000000008 18.500000000000004 122.92650000000002 309.98500000000007 70.041150000000016 44666100.000000007
decision_type=2 2 2 2 2 2 2 2 2 2 2 2 2 2 2 2 2 2 2 2 2 2 2 2 2 2 2 2 2 2
left_child=1 5 9 4 6 7 16 8 10 13 11 -1 -5 14 -3 -14 -2 -13 19 23 -21 22 28 -17 25 -23 27 -26 -15 -25
right_child=3 2 -4 12 -6 -7 -8 -9 -10 -11 -12 17 15 21 -16 18 -18 -19 -20 20 -22 24 -24 29 26 -27 -28 -29 -30 -31
leaf_value=0.12459033271759867 -0.032637554477610263 0.10558766723815999 -0.15089359390145765 0.023752255390665417 0.16136990895079151 -0.083181236689725338 0.060978244891217004 -0.025096469797471939 -0.0035383904790830647 -0.001588086751327754 0.12827786367151081 -0.021647184370570092 -0.049040053566150682 0.10556781222347236 -0.012083060905817291 -0.16293577269480206 -0.10623143636715562 0.043555048781418165 -0.05930941894509778 -0.10765982772777412 -0.017314672715322155 0.022627146132408155 -0.037388734282011685 -0.10501721192492193 0.10544375153553708 0.10592905418336014 0.11718864327165175 0.11471334020992215 0.11672314245610037 -0.10817428409379344
leaf_weight=2.0229755416512543 1.2304057963192452 12.700185116380455 1.0792949609458435 0.75008652359247108 1.8291583955287922 2.8323656916618338 1.0805563591420639 6.0228816233575335 5.1940222941339007 1.3104287683963765 2.4004045762121677 2.5759889557957649 2.9677223376929751 5.4215531162917605 3.9012913554906836 0.70641033351421256 9.9816849865019304 2.1201031766831875 1.7595191672444332 1.3416697420179837 1.0718246176838873 1.1739929020404805 1.1666622236371038 122.9976013302803 114.28375796601176 5.5264316648244858 1.4871247485280026 1.6673598587512959 1.1366786360740659 8.2797176390886289
leaf_count=32 19 256 13 11 12 26 12 38 28 10 15 18 32 110 25 3 195 25 21 25 18 21 10 2726 2369 107 14 26 13 151
internal_value=-0.000159825 0.0862512 0.0982291 -0.0978086 -0.0523633 0.00826152 -0.084167 0.0209973 0.0403928 0.100024 0.0654139 0.0429556 -0.102397 0.100921 0.0779354 -0.103077 -0.0981553 0.00778909 -0.104255 -0.104843 -0.0675379 0.103815 0.0856191 -0.105525 0.104947 0.0913336 0.105724 0.105577 0.107501 -0.105216
internal_weight=328.02 174.024 150.855 153.996 14.1218 23.1687 12.2926 20.3364 14.3135 149.775 9.11947 6.71907 139.875 148.465 16.6015 139.124 11.2121 4.69609 136.157 134.397 2.41349 131.864 7.72489 131.984 124.139 6.70042 117.438 115.951 6.55823 131.277
internal_count=6381 3156 2974 3225 238 182 226 156 118 2961 90 75 2987 2951 281 2976 214 43 2944 2923 43 2670 133 2880 2537 128 2409 2395 123 2877
is_linear=0
shrinkage=0.1


Tree=24
num_leaves=31
num_cat=0
split_feature=18 2 24 2 4 11 2 4 17 5 1 1 2 17 11 21 22 24 13 0 12 13 14 21 13 2 14 2 20 14
split_gain=246.496 15.7392 5.93227 3.51124 3.15005 8.16336 2.14066 2.13806 1.84007 1.50727 3.36128 1.48677 1.46931 1.42432 1.21121 1.03246 1.02156 0.969032 0.403485 1.88646 0.298498 2.11544 0.187738 0.141698 0.70627 0.115386 0.0201381 0.014493 0.0111734 0.0105587
threshold=350.67800000000005 0.49026700000000006 409.09550000000007 0.26385900000000007 1.0000000180025095e-35 5.5000000000000009 0.01707755 1.5000000000000002 47879850.000000007 1.0000000180025095e-35 65.542200000000022 12594550.000000002 25.988250000000004 306.63900000000007 1.5000000000000002 104.15650000000001 0.22389450000000002 0.16393350000000004 49314900.000000007 20.500000000000004 2.5000000000000004 84.592350000000025 0.81971500000000008 3.2031400000000008 108.61800000000001 10822200.000000002 87.727300000000014 122.92650000000002 309.98500000000007 22693950.000000004
decision_type=2 2 2 2 2 2 2 2 2 2 2 2 2 2 2 2 2 2 2 2 2 2 2 2 2 2 2 2 2 2
left_child=1 3 9 6 5 8 -1 17 11 10 12 -2 -3 20 -6 -16 -9 -8 25 -20 21 26 -22 24 -24 -17 -11 28 -25 -13
right_child=4 2 -4 -5 14 -7 7 16 -10 13 -12 29 -14 -15 15 18 -18 -19 19 -21 22 -23 23 27 -26 -27 -28 -29 -30 -31
leaf_value=-0.033141227236231773 -0.010484455465528654 -0.030439487089447437 -0.14155597768532882 -0.095080821702920995 -0.038681775876875199 0.19317759437772536 0.035434135979408372 0.04674777804657293 0.041603860885724431 0.10500482555004685 -0.010811345344792141 -0.11627135013900447 0.10502791662025937 -0.0014281912713795222 0.052053902912802666 -0.13891840627110685 0.12335952353619679 -0.047125972875127091 0.023228786103698825 -0.10735547947948042 0.16102362210474944 -0.038754586154402026 0.10527720214901465 0.10489968990666582 0.016758932628756409 -0.10464619747562183 0.12019783813554388 0.11539085236802316 0.11363971635954365 -0.10495926842729289
leaf_weight=5.2276555448770585 1.9896696731448162 0.86106516048312443 1.0376970320940007 3.0570774152874938 2.993496995419263 1.2468402683734883 3.072349861264227 4.0914562419056892 1.2057584561407555 4.9216437749564639 3.9229607731103888 0.920711498707531 11.411590650677679 1.311375930905341 0.42769025266170402 0.99070337042212386 3.029042936861515 2.6460911110043526 1.406031772494315 5.1892621703445911 0.58660540357231994 1.1810127161443231 5.082961566746234 104.28879562392831 1.0956723652780054 116.58231749385595 1.0603985115885732 1.3654931448400009 1.4835168533027161 7.9487331546843052
leaf_count=26 26 12 13 26 33 5 35 25 13 110 25 12 253 10 8 8 27 17 13 107 9 10 109 2378 19 2818 13 14 25 182
internal_value=-0.000158834 0.0844795 0.0966515 0.00403215 -0.0967108 -0.0504203 0.0208032 0.0427679 -0.0755948 0.0984353 0.0697666 -0.0886082 0.0955234 0.102229 -0.10154 -0.103051 0.0793382 -0.00276886 -0.103585 -0.0795166 0.103352 0.0835515 0.104597 0.104305 0.08958 -0.104935 0.107698 0.105154 0.105022 -0.106134
internal_weight=301.636 160.734 139.611 21.1237 140.901 13.3117 18.0666 12.8389 12.0649 138.573 16.1956 10.8591 12.2727 122.377 127.59 124.596 7.1205 5.71844 124.168 6.59529 121.066 7.16306 113.903 113.316 6.17863 117.573 5.98204 107.138 105.772 8.86944
internal_count=6381 3156 3000 156 3225 238 130 104 233 2987 290 220 265 2697 2987 2954 52 52 2946 120 2687 133 2554 2545 128 2826 123 2417 2403 194
is_linear=0
shrinkage=0.1


Tree=25
num_leaves=31
num_cat=0
split_feature=20 2 22 4 11 17 12 5 22 11 22 9 1 2 14 15 16 11 17 13 0 16 1 28 11 2 2 2 6 1
split_gain=219.772 15.0133 5.5047 3.05254 7.12624 2.42859 2.16736 1.78523 2.11694 1.55144 1.53872 1.19718 3.06156 4.88667 2.13835 2.55478 1.13432 1.00262 0.656371 0.465362 1.74587 0.414922 0.209231 0.0898067 0.0433901 0.0112132 0.00631287 0.00492312 0.00220163 0.00183219
threshold=376.53750000000008 19.668150000000004 381.09800000000001 1.0000000180025095e-35 2.5000000000000004 48868150.000000007 1.5000000000000002 1.5000000000000002 0.031627200000000001 1.5000000000000002 0.22389450000000002 2.5000000000000004 65.542200000000022 42.438600000000001 146.83400000000003 181.13600000000002 131.85900000000001 1.5000000000000002 5387205.0000000009 49314900.000000007 20.500000000000004 0.032590150000000005 478.25850000000008 309.53050000000002 2.5000000000000004 122.92650000000002 36227600.000000007 38185600.000000007 1.5000000000000002 12594550.000000002
decision_type=2 2 2 2 2 2 2 2 2 2 2 2 2 2 2 2 2 2 2 2 2 2 2 2 2 2 2 2 2 2
left_child=1 6 11 4 5 18 21 8 -8 -10 -9 12 -3 -14 15 24 -5 -18 -2 22 -21 -1 -19 25 -15 -13 -22 -24 -26 -20
right_child=3 2 -4 16 -6 -7 7 10 9 -11 -12 23 13 14 -16 -17 17 19 29 20 26 -23 27 -25 28 -27 -28 -29 -30 -31
leaf_value=0.032881130840355467 -0.022926096643645071 0.10447963164292032 -0.13780627245048746 0.00099958431103101494 0.13239504065692656 0.065909571627399008 0.032828786201219207 -0.01023856040792602 -0.032439708310920787 -0.13842679427403984 0.068332993829561414 0.10442903559787181 -0.10332402654883076 0.12216446984893457 -0.026840490850450822 -0.046371502522362551 -0.041450732772715417 -0.15291278322524268 -0.10874299151984693 0.020555647243622684 -0.10433460728890992 0.10625529659179211 -0.10407446009777577 0.074987044995398849 0.10480777429779937 0.11396269464177977 -0.11395015976443168 -0.11034784893072887 0.10936579020099857 -0.1045054850905472
leaf_weight=1.1837746277451544 1.0972596779465664 22.457291055470705 0.99677249416708846 1.0879982449114312 1.8523202687501896 1.0289298556745041 2.7042485512793082 6.1266832128167135 3.4903391897678375 2.2854592688381672 4.2018686309456825 87.810835458338261 1.9361844435334195 2.7373404800891858 1.8899721764028061 1.1768947653472421 2.7074052020907393 0.88729308545589347 1.1850320994853953 1.428710389882325 3.7350466400384903 2.2085624821484089 104.56218152865767 1.0386453606188286 3.1345931552350521 1.251282688230275 0.83551004901528347 1.2660860754549492 1.6009693443775175 7.3424412496387959
leaf_count=10 15 553 10 11 12 10 26 30 19 30 25 2198 12 27 20 15 31 4 17 13 96 42 2800 25 74 14 10 22 26 184
internal_value=-0.000156184 0.082906 0.0962632 -0.0955895 -0.04864 -0.080116 0.0070797 -0.00618969 -0.0401905 -0.0743784 0.021726 0.0981292 0.0824143 0.0426957 0.06952 0.0905746 -0.100629 -0.101587 -0.0957268 -0.103031 -0.0759315 0.080651 -0.104555 0.104222 0.112142 0.104563 -0.106092 -0.10415 0.106349 -0.105094
internal_weight=277.248 148.232 126.031 129.016 12.506 10.6537 22.2009 18.8086 8.48005 5.7758 10.3286 125.034 34.9332 12.476 10.5398 8.6498 116.51 115.422 9.62473 112.715 5.99927 3.39234 106.716 90.1008 7.4729 89.0621 4.57056 105.828 4.73556 8.52747
internal_count=6381 3156 2974 3225 238 226 182 130 75 49 55 2964 727 174 162 142 2987 2976 216 2945 119 52 2826 2237 127 2212 106 2822 100 201
is_linear=0
shrinkage=0.1


Tree=26
num_leaves=31
num_cat=0
split_feature=1 2 20 4 11 2 17 29 8 1 5 13 1 13 11 5 18 12 12 19 28 15 17 22 14 21 13 1 17 2
split_gain=195.794 14.2836 3.72923 3.06428 6.12899 2.80462 1.95046 1.82215 4.74945 1.54496 1.50299 3.30237 5.66399 1.2705 1.00036 0.76667 1.15608 0.811297 0.639486 2.71512 0.673113 0.481148 0.41699 0.616637 0.259177 0.165977 0.844819 0.072385 0.0146898 0.0114593
threshold=478.25850000000008 0.49026700000000006 376.53750000000008 1.0000000180025095e-35 5.5000000000000009 0.26385900000000007 48868150.000000007 0.04099305000000001 1.5000000000000002 12594550.000000002 1.0000000180025095e-35 63.118550000000006 65.542200000000022 10.363250000000003 1.5000000000000002 1.5000000000000002 0.11802950000000002 1.5000000000000002 2.5000000000000004 119.22500000000001 309.53050000000002 81263650.000000015 93454350.000000015 19668200.000000004 0.20486550000000001 3.2031400000000008 110.70950000000001 65.542200000000022 146.50000000000003 122.92650000000002
decision_type=2 2 2 2 2 2 2 2 2 2 2 2 2 2 2 2 2 2 2 2 2 2 2 2 2 2 2 2 2 2
left_child=1 5 10 4 6 7 9 8 15 -2 11 13 -13 -3 -5 16 -1 -18 19 28 24 22 -16 -24 -20 26 -26 -15 -12 -27
right_child=3 2 -4 14 -6 -7 -8 -9 -10 -11 18 12 -14 27 21 -17 17 -19 20 -21 -22 -23 23 -25 25 29 -28 -29 -30 -31
leaf_value=-0.038306146091438911 -0.0039948055308207603 -0.021791869359842599 -0.055539465948102086 -0.04048529430828364 0.16733290171130114 -0.089849087840659092 0.056918932681144334 0.065048314806835691 -0.098720830988470731 -0.10539975261501161 0.10420706421102502 0.10415051542102714 -0.12534399645488001 0.10407205686601757 -0.10387598872865576 0.084115837399712415 0.10538375312743276 0.0074974449380627419 0.19896867839150512 -0.038718704889156699 0.02487235218355777 -0.04503249859321274 -0.10608079214998128 0.007534273426154996 0.10431064514414604 0.10400459852108226 -0.001703211446392082 0.12669618234408569 0.11852519409440332 0.11317078354672663
leaf_weight=2.2242399156093651 1.8696428202092628 0.81640653684735198 1.6443900987505902 2.6992884241044512 1.2003407329320896 2.8045431040227404 1.0699405968189228 5.5730904936790457 3.6724458932876578 7.6499337181448936 4.4303460158407679 2.2107998467981806 2.0940446183085442 7.198450915515421 99.306993184611201 2.5195141211152077 1.6275520399212839 1.7648554146289823 0.28299548476934333 1.7014358006417749 1.1040027551352967 1.4535926766693581 1.1094816289842118 0.83890379220247258 4.3015112578868857 86.909317512065172 0.91086300835013378 1.7599307149648664 0.85479691997170437 1.3856420516967762
leaf_count=13 26 13 9 32 5 26 10 34 20 197 117 58 11 194 2891 17 35 11 2 12 25 21 27 16 111 2392 17 14 9 16
internal_value=-0.000155605 0.0806587 0.0939977 -0.09517 -0.0468211 0.00294587 -0.0710958 0.0179184 -0.00432468 -0.0854838 0.0961183 0.0654934 -0.00748459 0.0976331 -0.100578 0.0382832 0.0177236 0.0544597 0.100351 0.0711523 0.1025 -0.102157 -0.102977 -0.0571623 0.103414 0.103125 0.0857847 0.108517 0.106523 0.104148
internal_weight=254.989 137.791 117.605 117.198 11.7899 20.1862 10.5895 17.3817 11.8086 9.51958 115.961 14.0796 4.30484 9.77479 105.408 8.13616 5.61665 3.39241 101.881 6.98658 94.8943 102.709 101.255 1.94839 93.7903 93.5073 5.21237 8.95838 5.28514 88.295
internal_count=6381 3156 3000 3225 238 156 233 130 96 223 2991 290 69 221 2987 76 59 46 2701 138 2563 2955 2934 43 2538 2536 128 208 126 2408
is_linear=0
shrinkage=0.1


Tree=27
num_leaves=31
num_cat=0
split_feature=1 2 22 4 11 17 2 30 1 13 3 29 8 11 0 12 13 12 13 0 19 18 2 2 2 20 1 14 24 15
split_gain=174.437 13.5271 4.67157 2.97055 5.4699 2.89516 2.38715 1.85628 5.9023 5.79068 2.51611 1.49366 3.93869 1.04183 0.812058 0.92998 0.783104 0.610534 0.517344 1.79938 0.424188 0.381034 0.00821914 0.00334808 0.00333539 0.00238642 0.0019232 0.00121152 0.00109989 0.000928491
threshold=478.25850000000008 0.49026700000000006 381.09800000000001 1.0000000180025095e-35 2.5000000000000004 50582900.000000007 0.26385900000000007 0.4211795000000001 65.542200000000022 63.118550000000006 2.5000000000000004 0.04099305000000001 1.5000000000000002 1.5000000000000002 15.500000000000002 1.5000000000000002 7817100.0000000009 2.5000000000000004 49314900.000000007 20.500000000000004 48.146850000000008 0.49214050000000004 122.92650000000002 36227600.000000007 38185600.000000007 309.98500000000007 12594550.000000002 0.20486550000000001 58347.200000000004 58279100.000000007
decision_type=2 2 2 2 2 2 2 2 2 2 2 2 2 2 2 2 2 2 2 2 2 2 2 2 2 2 2 2 2 2
left_child=1 6 7 4 5 16 11 8 10 20 21 12 14 -5 15 27 -2 -9 24 -20 -10 -3 25 29 28 -19 -18 -1 -15 -21
right_child=3 2 -4 13 -6 -7 -8 17 9 -11 -12 -13 -14 18 -16 -17 26 22 19 23 -22 -23 -24 -25 -26 -27 -28 -29 -30 -31
leaf_value=0.10925743474379156 -0.0095658433872712317 0.17192647215391565 -0.15845272200055305 -0.03763562009720383 0.11425935061798081 0.10227558587893366 -0.085180534818693476 0.026545268689745743 0.12201263610028755 -0.078600889224158463 -0.081625061999487061 0.059443250282411778 -0.09054030498312042 -0.10601134354909213 -0.019317718716984421 0.024189067381272678 -0.10789404738193098 0.10362774642942606 0.027719935308233704 -0.10330871271938809 0.051897310152828086 0.103638418473946 0.11181575168147051 -0.11170234068530419 -0.10892325304852027 0.1082820700335882 -0.10386799497695227 0.10448446648212602 -0.10330978855691331 -0.10756653202934506
leaf_weight=0.96084322407842249 0.97946425154804817 0.85120872780681622 0.73456941172480483 2.6177074536681166 1.8020048215985287 0.82827422767877656 2.6695691086351863 1.0360192693769921 2.1179257035255428 4.3219608627259731 0.7365771010518064 5.4930836111307135 3.6073100492358208 1.5340743754059065 2.0154257640242577 3.7615001946687698 1.4797512702643869 73.676144737750292 1.3640881627798069 2.5861317999660978 1.4560358524322508 20.390249777585268 1.2681955806910981 0.71806706488132466 1.0901631824672211 1.1183487344533194 5.9869585558772087 1.191000450402498 85.494197128340602 0.63863179087638844
leaf_count=14 19 21 5 32 12 6 26 10 26 35 9 34 20 35 13 19 23 2222 13 84 22 608 16 10 22 26 178 30 2778 13
internal_value=-0.000145871 0.0789335 0.0928685 -0.0942015 -0.0451653 -0.0761411 0.00274122 0.0945942 0.073432 -0.000725935 0.100074 0.0165242 -0.00391232 -0.0998567 0.0355003 0.0541838 -0.0936376 0.102794 -0.1016 -0.0712773 0.0934476 0.106375 0.103833 -0.105527 -0.103426 0.103697 -0.104666 0.106616 -0.103357 -0.104152
internal_weight=234.525 127.406 107.707 107.12 11.0765 9.27445 19.6987 106.973 29.874 7.89592 21.978 17.0292 11.5361 96.0431 7.92877 5.91334 8.44617 77.0987 93.4254 5.30692 3.57396 21.2415 76.0627 3.94283 88.1184 74.7945 7.46671 2.15184 87.0283 3.22476
internal_count=6381 3156 3000 3225 238 226 156 2995 721 83 638 130 96 2987 76 63 220 2274 2955 120 48 629 2264 107 2835 2248 201 44 2813 97
is_linear=0
shrinkage=0.1


Tree=28
num_leaves=31
num_cat=0
split_feature=18 2 24 4 11 17 2 1 5 16 1 12 12 2 12 17 11 18 15 1 13 25 12 14 15 21 13 1 1 24
split_gain=155.423 12.9871 4.30676 2.82971 4.71333 2.59341 2.02977 1.63786 1.5632 3.09677 4.16882 1.38551 2.86753 4.62089 1.41043 1.37305 1.37123 1.04436 0.553208 0.975305 0.483167 0.827025 0.389784 3.18057 0.174681 0.195626 0.994546 0.0545644 0.0299486 0.0190437
threshold=350.67800000000005 0.49026700000000006 409.09550000000007 1.0000000180025095e-35 5.5000000000000009 51897400.000000007 0.26385900000000007 12594550.000000002 1.0000000180025095e-35 57.994500000000009 65.542200000000022 4.5000000000000009 2.5000000000000004 0.01707755 1.5000000000000002 306.63900000000007 1.5000000000000002 5.3174900000000003 81263650.000000015 151.07950000000002 59829550.000000007 34970750.000000007 2.5000000000000004 129.65650000000002 0.29870050000000004 3.2031400000000008 119.01900000000002 478.25850000000008 65.542200000000022 47.038950000000007
decision_type=2 2 2 2 2 2 2 2 2 2 2 2 2 2 2 2 2 2 2 2 2 2 2 2 2 2 2 2 2 2
left_child=1 6 8 4 5 7 11 -2 9 10 17 12 13 -1 -15 22 -5 -3 19 -18 27 -22 23 29 -24 26 -26 -21 -11 -10
right_child=3 2 -4 16 -6 -7 -8 -9 15 28 -12 -13 -14 14 -16 -17 18 -19 -20 20 21 -23 24 -25 25 -27 -28 -29 -30 -31
leaf_value=-0.11680313879110354 0.0037450063633196759 -0.03042054927885517 -0.12779204869481328 -0.027918672552087971 0.15083710673120346 0.10627097882883985 -0.08065186489441481 -0.10495644146489624 0.10356331274157758 0.10326920778773759 -0.10322684291852691 -0.05077885969156995 0.12235068495064622 0.10684519802440862 0.015968185927051622 -0.0059984695319719363 0.10414879553980445 0.10340034368091476 -0.036066657184030904 -0.13439853519032721 -0.10644791494025344 0.037114573899810849 0.17419286002007003 -0.11054482054976661 0.1035581777759548 0.10349072880994235 -0.021758963541343154 -0.1031738100854982 0.1190455437907651 0.11978480672237586
leaf_weight=2.4099216684699121 1.7413847371935807 0.74453440308570717 0.8800479918718328 2.6663927994668475 1.1149320155382145 0.79303126037120897 2.5441669523715964 6.7946840059012175 3.6571259349584571 5.1081005446612835 2.1471175700426102 2.6704907566308966 2.610845446586608 2.2915277201682311 6.7047418244183064 1.2216432578861702 0.22944510355591674 2.6908939797431231 1.3024153895676125 0.56350594758987327 1.0044992733746756 0.66819615475833405 0.3390828762203445 0.79017715901136387 3.6515462957322589 73.507522106170654 0.76616962999105442 81.667725631967187 1.5740619674324987 0.90227358788251866
leaf_count=12 26 11 13 33 5 5 26 202 115 168 10 20 11 48 39 10 6 86 21 3 25 17 4 7 113 2422 15 2882 15 11
internal_value=-0.000139293 0.0776838 0.092431 -0.092703 -0.0434866 -0.0667104 0.00255086 -0.082781 0.0944269 0.0610569 0.00608146 0.0152359 0.0278128 0.00617339 0.0391164 0.0992513 -0.0985373 0.0743984 -0.100741 -0.101742 -0.102305 -0.0490986 0.100789 0.0746737 0.102574 0.102262 0.0818243 -0.103388 0.106986 0.106773
internal_weight=215.758 117.212 97.9803 98.5462 10.444 9.3291 19.2317 8.53607 97.1002 12.2647 5.58255 16.6875 14.017 11.4062 8.99627 84.8355 88.1022 3.43543 85.4358 84.1334 83.9039 1.6727 83.6139 5.34958 78.2643 77.9252 4.41772 82.2312 6.68216 4.5594
internal_count=6381 3156 3000 3225 238 233 156 228 2987 290 107 130 110 99 87 2697 2987 97 2954 2933 2927 42 2687 133 2554 2550 128 2885 183 126
is_linear=0
shrinkage=0.1


Tree=29
num_leaves=31
num_cat=0
split_feature=20 1 22 4 11 17 1 10 3 9 1 16 10 13 12 16 22 11 13 13 12 1 20 1 29 16 20 2 1 2
split_gain=138.48 12.4449 3.84229 2.68837 4.27124 2.47577 2.43811 1.57839 1.45292 1.39933 2.98041 4.0378 4.87334 1.81816 1.18682 2.94427 1.24158 1.11903 1.02005 0.642282 1.84305 0.641264 0.297583 0.123824 0.0820419 0.0371644 0.00638907 0.00426499 0.00419723 0.00405907
